2.951534986495971680e-01,5.116407871246337891e-01,4.954019784927368164e-01,2.471340745687484741e-01,-1.994317471981048584e-01,2.417095750570297241e-01,5.399728417396545410e-01,2.658177018165588379e-01,1.517461091279983521e-01,4.087026417255401611e-01,3.248442336916923523e-02,1.850424110889434814e-01,-3.758149743080139160e-01,1.898719519376754761e-01,2.782141864299774170e-01,2.537823021411895752e-01,-1.216379523277282715e+00,-6.005625426769256592e-02,2.780677974224090576e-01,3.895231187343597412e-01,6.238815188407897949e-01,-1.460824906826019287e-02,3.953295946121215820e-01,3.166455626487731934e-01,4.427859187126159668e-01,1.520962715148925781e-01,1.645296216011047363e-01,2.348977923393249512e-01,2.472989708185195923e-01,3.905228972434997559e-01,5.041012763977050781e-01,-4.728400334715843201e-02,5.355073809623718262e-01,4.298293888568878174e-01,1.889246106147766113e-01,5.155275464057922363e-01,4.335829615592956543e-02,6.213793158531188965e-01,-2.259335070848464966e-01,3.797822296619415283e-01,-4.961691200733184814e-01,1.354486644268035889e-01,4.446615278720855713e-01,2.645916342735290527e-01,2.211847454309463501e-01,3.159004449844360352e-01,3.940468728542327881e-01,7.298663854598999023e-01,3.534975647926330566e-01,1.749353855848312378e-01,4.099312126636505127e-01,3.522857725620269775e-01,3.491121232509613037e-01,5.574101582169532776e-02,-6.725259125232696533e-02,3.540838956832885742e-01,2.746661901473999023e-01,1.324713230133056641e-02,-2.713845670223236084e-01,1.954801231622695923e-01,2.890982925891876221e-01,-2.743718624114990234e+00,3.297377228736877441e-01,1.357571184635162354e-01,-3.287530541419982910e-01,4.827640205621719360e-02,5.622068047523498535e-01,5.286750569939613342e-02,3.730595111846923828e-01,2.552874684333801270e-01,2.715022265911102295e-01,1.328262090682983398e-01,1.078100442886352539e+00,1.843098700046539307e-01,8.026524633169174194e-02,2.393201887607574463e-01,2.176064103841781616e-01,3.873097896575927734e-01,-4.577924683690071106e-02,3.253201544284820557e-01,4.681456089019775391e-01,1.057689934968948364e-01,1.391071081161499023e-01,-7.831503748893737793e-01,3.151335418224334717e-01,1.427787542343139648e-01,3.251143693923950195e-01,2.901565134525299072e-01,3.074965178966522217e-01,5.609384179115295410e-01,1.006039008498191833e-01,3.916093111038208008e-01,3.518813550472259521e-01,1.710332632064819336e-01,2.513195872306823730e-01,8.279254436492919922e-01,3.672068417072296143e-01,3.162047266960144043e-01,4.985126480460166931e-02,2.751259207725524902e-01
9.041433804668486118e-04,2.398091834038496017e-03,-1.037401799112558365e-02,1.435792655684053898e-03,1.990210451185703278e-02,-2.272085985168814659e-03,-7.700905669480562210e-03,-9.216507896780967712e-03,3.149962425231933594e-02,1.215524412691593170e-02,-8.617822080850601196e-03,-1.910278201103210449e-02,-1.465001050382852554e-02,-1.086549367755651474e-02,-2.493379823863506317e-02,5.933302920311689377e-03,7.347742561250925064e-03,-1.288537960499525070e-02,1.433346234261989594e-02,2.102888887748122215e-03,-1.585877686738967896e-02,-1.982604339718818665e-02,-1.368779502809047699e-02,8.649650029838085175e-03,1.608471199870109558e-02,-1.025488507002592087e-02,5.302895078784786165e-05,-1.106384955346584320e-02,-8.157428819686174393e-04,-9.677005000412464142e-03,-8.369891904294490814e-03,1.497610751539468765e-02,9.388870559632778168e-03,-2.813328057527542114e-03,6.486836355179548264e-03,-5.663891322910785675e-03,-1.154626905918121338e-02,1.869222335517406464e-02,-7.308911066502332687e-03,-3.999619279056787491e-03,-2.062386274337768555e-02,-8.298884145915508270e-03,2.415434457361698151e-02,1.109739765524864197e-02,6.773662287741899490e-03,4.477289970964193344e-03,1.203831192106008530e-02,9.538165293633937836e-03,1.874661631882190704e-02,-1.455063186585903168e-02,1.877633295953273773e-02,1.682689785957336426e-02,-2.416888019070029259e-03,-5.045597441494464874e-03,1.275892183184623718e-02,-1.643964205868542194e-03,2.736357413232326508e-02,1.285205315798521042e-02,1.301432121545076370e-02,5.472338758409023285e-03,9.812537580728530884e-03,-6.798018584959208965e-04,1.920198323205113411e-03,-8.842477574944496155e-03,-1.496435725130140781e-04,1.019513365463353693e-04,1.861064694821834564e-02,1.785377389751374722e-03,4.116816446185112000e-03,-3.014328656718134880e-03,1.631527394056320190e-02,-1.113049127161502838e-02,4.595265258103609085e-03,2.796571515500545502e-02,-3.157816827297210693e-02,1.711293496191501617e-02,4.091432783752679825e-03,-4.548366647213697433e-03,1.618327456526458263e-03,2.938585169613361359e-02,-2.321768086403608322e-03,1.251869741827249527e-02,-1.444399077445268631e-02,-2.211488410830497742e-02,9.505428024567663670e-04,-1.333608385175466537e-02,2.994847018271684647e-03,-5.269166082143783569e-03,-7.711288984864950180e-03,2.221789769828319550e-02,-5.356044857762753963e-04,3.372555598616600037e-02,-7.529573980718851089e-03,-4.293391946703195572e-03,1.178462710231542587e-02,-3.698002081364393234e-03,-7.510932628065347672e-04,1.100778672844171524e-02,-1.371163595467805862e-02,1.382672321051359177e-02
4.153476655483245850e-02,-5.218267440795898438e-02,7.102712988853454590e-03,2.131650410592556000e-02,3.471140190958976746e-02,6.595579907298088074e-03,-2.506165392696857452e-02,-1.979854516685009003e-02,-1.452186843380331993e-03,8.751784451305866241e-03,1.703199557960033417e-02,1.054263580590486526e-02,-1.194259710609912872e-02,-1.938723144121468067e-03,2.719599194824695587e-02,-4.146339744329452515e-02,2.094077644869685173e-03,4.417501389980316162e-02,-1.116710901260375977e-02,1.928703859448432922e-02,-1.035235356539487839e-02,2.062575425952672958e-03,1.376646384596824646e-02,2.453840151429176331e-02,-3.628502599895000458e-03,4.577851388603448868e-03,-9.794819168746471405e-03,3.979232534766197205e-02,-1.556700747460126877e-02,-3.611185122281312943e-03,-4.237150400876998901e-02,7.268840447068214417e-03,-2.306252717971801758e-03,-7.202140986919403076e-04,1.103038154542446136e-02,-1.889797113835811615e-02,1.749605685472488403e-02,7.969250902533531189e-03,2.218064852058887482e-03,4.795676469802856445e-02,-3.482985869050025940e-02,-1.263325661420822144e-02,3.175569698214530945e-02,-1.778206089511513710e-03,3.191792964935302734e-02,-2.833860553801059723e-02,-1.231051981449127197e-02,-9.483277681283652782e-04,1.405792776495218277e-02,-1.663745753467082977e-02,-1.055594347417354584e-02,-1.984323561191558838e-02,-1.024074852466583252e-03,-6.670493166893720627e-03,-2.984918095171451569e-02,-3.326177224516868591e-02,3.602334111928939819e-02,2.564347907900810242e-02,2.289387024939060211e-02,2.812575316056609154e-03,1.981507288292050362e-03,-4.890393093228340149e-02,2.355055510997772217e-02,3.995091468095779419e-02,-3.352281078696250916e-02,4.197080060839653015e-02,6.495955167338252068e-04,4.466210305690765381e-02,-1.984700560569763184e-02,-2.779959328472614288e-02,9.368054568767547607e-03,-3.298242390155792236e-02,7.089618593454360962e-02,1.075015519745647907e-03,3.172325715422630310e-02,-1.930793048813939095e-03,9.188476949930191040e-03,-1.244048494845628738e-02,3.632989898324012756e-02,-5.308595718815922737e-04,9.985127253457903862e-04,2.788868360221385956e-02,2.602734230458736420e-02,5.070405825972557068e-02,1.234662998467683792e-02,-1.329580321907997131e-02,1.334062777459621429e-02,-1.463215425610542297e-02,3.702209517359733582e-02,1.717933919280767441e-03,1.682830974459648132e-02,2.416777238249778748e-02,1.075677759945392609e-02,1.253874134272336960e-02,-2.512371400371193886e-03,-2.276594459544867277e-04,-3.510338813066482544e-02,3.499319031834602356e-02,1.550889224745333195e-03,-4.476359114050865173e-02
-5.646384321153163910e-03,1.330974884331226349e-02,-9.953581728041172028e-03,4.938159137964248657e-03,-3.899591742083430290e-03,7.847233675420284271e-03,1.582564320415258408e-03,-2.178908616770058870e-04,5.628036800771951675e-03,-9.908871725201606750e-03,1.059929840266704559e-02,-1.630356162786483765e-02,2.836443716660141945e-03,-1.930783316493034363e-02,-1.126191392540931702e-02,5.815063137561082840e-03,-4.287143703550100327e-03,-1.029129326343536377e-02,9.018144570291042328e-03,2.092832466587424278e-03,9.844010695815086365e-03,7.505695102736353874e-04,-1.135080680251121521e-02,-4.397102748043835163e-04,2.730283886194229126e-03,7.021152880042791367e-03,1.315107196569442749e-02,-1.162321423180401325e-03,1.456270273774862289e-02,-1.375414896756410599e-02,-3.580824239179491997e-03,2.715970855206251144e-03,-2.171969600021839142e-02,-2.912702271714806557e-03,9.496492333710193634e-03,1.683555915951728821e-02,-1.398846227675676346e-02,-5.583091638982295990e-03,1.461307052522897720e-02,2.475800458341836929e-03,5.192257813178002834e-04,7.812004536390304565e-03,1.395454513840377331e-03,1.636790297925472260e-02,4.886258393526077271e-03,-1.145675545558333397e-03,9.026729501783847809e-03,-5.811625160276889801e-03,1.216218899935483932e-02,1.064127683639526367e-02,9.918848052620887756e-03,5.763027351349592209e-03,-8.712319657206535339e-03,8.134958334267139435e-03,1.138696167618036270e-02,1.962964423000812531e-02,-1.740717678330838680e-03,-9.047934436239302158e-04,2.354068309068679810e-02,-2.758993068709969521e-03,4.264716524630784988e-03,-5.861534154973924160e-04,1.154122315347194672e-02,-2.672777883708477020e-02,5.341466050595045090e-03,-2.083144136122427881e-05,2.621705178171396255e-03,9.039110736921429634e-04,5.043186247348785400e-04,1.106360554695129395e-02,-1.417594868689775467e-02,1.353188883513212204e-02,1.079237088561058044e-02,-2.779026515781879425e-03,9.804224595427513123e-03,8.546150289475917816e-03,1.180951297283172607e-02,1.640283386223018169e-03,1.308271102607250214e-02,2.656101249158382416e-03,7.471642456948757172e-03,-1.863208366557955742e-03,2.332721464335918427e-02,9.762610308825969696e-03,1.054679602384567261e-02,1.807744242250919342e-02,-1.060482487082481384e-02,3.684375900775194168e-03,-7.452214136719703674e-03,-1.390913687646389008e-02,-1.962196268141269684e-02,-9.123144671320915222e-03,8.714465424418449402e-03,1.689062640070915222e-02,6.290688179433345795e-03,8.324579335749149323e-03,-5.511023104190826416e-03,-6.289339624345302582e-03,-8.606282644905149937e-04,3.302870085462927818e-03
-1.309042051434516907e-02,-2.176826260983943939e-02,-7.282221689820289612e-03,2.302720583975315094e-02,-1.125015597790479660e-02,-4.088327288627624512e-03,1.910440064966678619e-02,-3.488962724804878235e-02,4.904924891889095306e-03,1.269420143216848373e-02,5.117399618029594421e-03,-2.461720816791057587e-02,-2.570598758757114410e-02,4.379270132631063461e-03,4.383342806249856949e-03,-3.557505784556269646e-03,3.064117580652236938e-02,-1.865798607468605042e-02,-1.770128868520259857e-02,2.429643832147121429e-02,-2.045067213475704193e-02,-1.846737600862979889e-02,2.772626280784606934e-02,-1.121559739112854004e-02,-1.090077124536037445e-02,9.499817388132214546e-04,2.589216083288192749e-02,-1.609639264643192291e-02,1.927329413592815399e-02,-8.276308886706829071e-03,5.863871891051530838e-03,3.613306581974029541e-02,-1.410111598670482635e-02,-1.432890631258487701e-02,-5.714762955904006958e-04,7.547455839812755585e-03,-1.070100069046020508e-02,1.430484186857938766e-02,4.877489060163497925e-02,-3.409394063055515289e-03,2.043019235134124756e-02,-7.674016058444976807e-03,-1.461849268525838852e-02,-2.660122327506542206e-02,9.413277730345726013e-03,4.043544176965951920e-03,-1.097335759550333023e-02,1.779249869287014008e-02,7.463703397661447525e-03,-1.164403185248374939e-02,9.588712826371192932e-03,5.129891447722911835e-03,-3.342790156602859497e-02,-2.491024136543273926e-02,3.114966489374637604e-02,-5.493453238159418106e-03,2.550814999267458916e-03,2.345947921276092529e-02,-5.838538985699415207e-03,-9.361419826745986938e-03,1.344394404441118240e-02,5.266334116458892822e-02,1.973592862486839294e-02,-5.602752044796943665e-02,2.464860863983631134e-02,4.592007899191230536e-04,-3.487665671855211258e-03,-5.318754352629184723e-03,3.471398493275046349e-03,-1.522032544016838074e-02,6.301269750110805035e-04,4.378587938845157623e-03,-3.894603624939918518e-02,3.183822706341743469e-02,8.923618122935295105e-03,1.786116883158683777e-02,-1.719750650227069855e-02,3.372665494680404663e-02,2.043943293392658234e-02,5.344387143850326538e-03,-2.402910403907299042e-02,-1.922344230115413666e-02,-2.374759316444396973e-02,-5.981232505291700363e-03,2.374369092285633087e-02,-8.311524055898189545e-03,1.081691496074199677e-02,-3.407612070441246033e-02,-5.786273395642638206e-04,-2.113517932593822479e-02,9.376326575875282288e-03,1.858074963092803955e-02,-4.666532948613166809e-02,4.784068558365106583e-03,-3.174646990373730659e-03,6.385190412402153015e-03,-1.763328351080417633e-02,1.716308854520320892e-02,1.938748732209205627e-02,2.420341968536376953e-02
-1.375360973179340363e-02,1.562538743019104004e-02,9.694850072264671326e-03,1.293467264622449875e-02,-1.637358590960502625e-02,-3.330995142459869385e-02,3.719207830727100372e-03,-2.956499718129634857e-02,-7.327553350478410721e-03,2.993172965943813324e-02,-5.168825853615999222e-03,-7.206710986793041229e-03,1.365929935127496719e-02,2.021293155848979950e-02,-1.372832921333611012e-03,-4.664964508265256882e-03,5.583862960338592529e-02,8.271500468254089355e-03,-3.332086198497563601e-04,1.252634916454553604e-03,1.267962809652090073e-02,-8.769036270678043365e-03,-4.419700999278575182e-04,-1.194909773766994476e-02,-3.201829735189676285e-03,-1.037066336721181870e-02,-2.162639982998371124e-03,-3.907259553670883179e-03,4.946250468492507935e-03,-8.352843113243579865e-03,-1.355911418795585632e-02,-6.722955033183097839e-03,2.998510375618934631e-02,-9.244601242244243622e-03,-1.396339014172554016e-02,-8.269336074590682983e-03,-7.362827658653259277e-03,1.754490472376346588e-02,9.923266246914863586e-03,1.543869730085134506e-02,2.633721381425857544e-02,-9.576448355801403522e-04,-4.627588205039501190e-03,-1.183150894939899445e-02,5.746695678681135178e-03,-5.407632561400532722e-04,1.174718141555786133e-02,1.142469514161348343e-02,-7.699375972151756287e-03,-4.242001567035913467e-03,-1.089774537831544876e-02,1.428675139322876930e-03,3.698716405779123306e-03,-1.277345232665538788e-02,7.020048331469297409e-03,-1.325390581041574478e-02,-2.950771478936076164e-03,-3.260911908000707626e-03,3.802707651630043983e-03,1.409211009740829468e-02,-5.881945136934518814e-03,1.284454390406608582e-02,4.712243098765611649e-03,1.338021736592054367e-02,6.469408515840768814e-03,7.848978973925113678e-03,-2.974575385451316833e-03,1.211279444396495819e-02,-1.353636384010314941e-02,-9.482131339609622955e-03,1.150207407772541046e-02,2.326589776203036308e-03,-1.097260694950819016e-02,6.481792661361396313e-04,2.584504522383213043e-02,1.834301860071718693e-03,-1.746065355837345123e-02,2.557828556746244431e-03,1.448489725589752197e-02,-6.020201370120048523e-03,1.099535916000604630e-02,2.497046720236539841e-03,-6.717914715409278870e-03,-1.355020515620708466e-02,5.068005062639713287e-03,-1.889100763946771622e-03,3.683353774249553680e-03,1.257770054508000612e-04,-9.173860773444175720e-03,4.225131124258041382e-03,2.264101989567279816e-02,3.525045933201909065e-03,-1.268362812697887421e-02,1.722356304526329041e-02,3.900385461747646332e-03,2.282576076686382294e-02,-8.378371596336364746e-03,-5.258834920823574066e-03,4.815569613128900528e-03,2.721028029918670654e-02
1.761094294488430023e-02,1.334222964942455292e-02,1.080420427024364471e-02,1.173567841760814190e-03,3.195521188899874687e-03,-2.195907384157180786e-02,1.823760755360126495e-02,8.159694843925535679e-04,1.295321341603994370e-02,1.156443543732166290e-02,3.070185426622629166e-03,2.210182324051856995e-02,-1.993969082832336426e-02,2.695640796446241438e-05,-2.230949327349662781e-02,1.189965475350618362e-02,2.671258896589279175e-02,-1.269182190299034119e-02,-8.037981577217578888e-03,2.503996342420578003e-02,-2.605970017611980438e-02,-2.025003358721733093e-02,-7.890709675848484039e-03,2.606603316962718964e-02,2.074611373245716095e-02,4.053148441016674042e-03,2.058037929236888885e-02,-1.862362213432788849e-02,5.555268377065658569e-03,2.218930236995220184e-02,9.985740296542644501e-03,2.501827478408813477e-02,2.402918180450797081e-03,-8.116303943097591400e-03,2.688917890191078186e-02,-1.290764287114143372e-02,-2.377517893910408020e-02,-1.128063164651393890e-02,-2.191666327416896820e-02,7.453322876244783401e-03,6.253873463720083237e-03,4.769473744090646505e-04,8.885717019438743591e-03,-1.240423507988452911e-02,-1.616728864610195160e-02,2.128442563116550446e-02,-1.578515209257602692e-02,2.529796771705150604e-02,1.828073145588859916e-04,-5.703364964574575424e-03,-9.831136092543601990e-03,3.109425539150834084e-03,6.639658240601420403e-04,-3.518146695569157600e-03,2.286430634558200836e-02,9.766717441380023956e-03,7.678300607949495316e-03,3.033820539712905884e-03,-1.373236346989870071e-02,3.436820581555366516e-02,-9.087883867323398590e-03,-2.959009073674678802e-02,1.309736724942922592e-02,3.597964346408843994e-02,-1.338993292301893234e-02,-1.123599894344806671e-02,6.373394862748682499e-04,2.736453432589769363e-03,-9.991620667278766632e-03,-1.105353608727455139e-02,-8.822943083941936493e-03,-1.172295026481151581e-02,-2.932023257017135620e-03,1.371575891971588135e-02,6.358097773045301437e-03,-5.681081209331750870e-03,3.930687904357910156e-03,5.754478275775909424e-03,-4.348182585090398788e-03,1.096106227487325668e-02,1.479347702115774155e-02,-9.358878247439861298e-03,3.545161103829741478e-03,-1.866837032139301300e-02,-1.005186792463064194e-02,-3.101925831288099289e-03,2.890472300350666046e-03,9.278319776058197021e-03,-2.018570154905319214e-02,1.062139030545949936e-02,5.219072103500366211e-03,-4.785780329257249832e-03,-1.126746553927659988e-02,-1.808086037635803223e-02,-2.077170833945274353e-02,1.871395856142044067e-02,-3.582661971449851990e-03,2.109014661982655525e-03,-2.127553801983594894e-03,8.330855518579483032e-03
-9.785794652998447418e-03,-2.065056003630161285e-03,8.060345426201820374e-04,-3.336981404572725296e-03,-4.491460975259542465e-03,-1.485793571919202805e-02,-1.080871094018220901e-02,3.069764748215675354e-02,2.685250248759984970e-03,1.281528919935226440e-02,4.318499006330966949e-03,-6.222392898052930832e-03,1.600489718839526176e-03,8.867015130817890167e-03,2.341001480817794800e-02,2.064055576920509338e-02,-1.294464431703090668e-02,-7.473328150808811188e-03,-2.009444683790206909e-02,1.665751263499259949e-02,-4.159562289714813232e-03,-6.951900664716959000e-03,1.482553128153085709e-02,2.013982273638248444e-03,1.504883449524641037e-02,-2.052096650004386902e-02,2.597587369382381439e-02,-5.411388352513313293e-03,-1.688003726303577423e-02,4.570268793031573296e-04,1.979625376407057047e-04,-2.124094963073730469e-02,-1.361372298561036587e-03,1.564300619065761566e-02,-1.674401201307773590e-02,1.314295176416635513e-02,2.865362679585814476e-03,1.231885515153408051e-02,-9.390800260007381439e-03,1.311078667640686035e-02,1.675738836638629436e-03,-1.221880037337541580e-02,-3.845112863928079605e-03,1.300590112805366516e-02,-8.074685931205749512e-03,3.460420994088053703e-03,-9.293810464441776276e-03,1.732037588953971863e-02,6.134850438684225082e-03,7.558096665889024734e-03,1.243509352207183838e-02,-8.527561090886592865e-03,1.034499239176511765e-02,4.760415293276309967e-03,3.990070894360542297e-03,-1.383337657898664474e-03,7.346500642597675323e-03,-2.513910410925745964e-03,8.153270930051803589e-03,8.742102072574198246e-04,1.432368624955415726e-02,1.069509424269199371e-03,-9.104315540753304958e-04,-2.649320522323250771e-03,-1.269275601953268051e-02,1.379445381462574005e-02,1.652862317860126495e-02,2.359367907047271729e-03,5.402528913691639900e-04,-1.808165572583675385e-02,-2.856750506907701492e-03,2.670326828956604004e-02,8.782112039625644684e-03,-9.172359714284539223e-04,1.768434233963489532e-02,7.041678763926029205e-03,-1.505121355876326561e-03,6.102222017943859100e-03,-1.371464319527149200e-02,9.599520853953436017e-05,6.398683181032538414e-04,-8.439314551651477814e-03,-1.022356911562383175e-03,1.633321953704580665e-04,7.023968733847141266e-03,1.009498070925474167e-02,-2.351650036871433258e-02,8.723905775696039200e-04,1.540039107203483582e-02,-5.875406204722821712e-04,1.337516028434038162e-02,1.509521529078483582e-02,6.815606262534856796e-03,1.294177398085594177e-02,-6.627541035413742065e-03,4.145262762904167175e-03,-9.645274258218705654e-04,4.101426340639591217e-03,1.561420620419085026e-03,1.184950000606477261e-03
-1.914048101752996445e-03,-1.316776685416698456e-02,-9.374603629112243652e-03,1.561801973730325699e-02,1.599395764060318470e-04,1.025411998853087425e-03,-2.077041380107402802e-02,2.048088051378726959e-02,1.311634783633053303e-03,-1.203992124646902084e-02,-4.490156192332506180e-03,-4.573354963213205338e-03,-1.411536708474159241e-03,-9.311685338616371155e-03,-4.011988174170255661e-03,2.137373946607112885e-02,-2.205768600106239319e-02,1.319632958620786667e-02,-7.321928162127733231e-03,1.494731521233916283e-03,3.416486084461212158e-02,2.268601767718791962e-02,-4.993259906768798828e-03,8.118062280118465424e-03,6.935263052582740784e-03,1.252057496458292007e-02,5.944671574980020523e-03,1.859249174594879150e-02,1.447424478828907013e-02,2.010923065245151520e-02,8.402193780057132244e-04,-1.026011072099208832e-02,2.127378620207309723e-02,-1.350269094109535217e-02,1.030835695564746857e-02,1.682301983237266541e-02,-1.154606230556964874e-02,-7.093817461282014847e-03,1.186089683324098587e-02,7.589051034301519394e-03,8.020352106541395187e-04,-1.841781474649906158e-02,-2.844608016312122345e-02,1.589591614902019501e-02,-1.187289319932460785e-02,4.347105510532855988e-03,2.080433815717697144e-02,1.570093445479869843e-02,1.125595346093177795e-02,1.551134418696165085e-02,-3.699384629726409912e-03,6.403340492397546768e-03,-8.040770888328552246e-03,1.293301582336425781e-02,-3.133830055594444275e-02,-1.911830529570579529e-02,1.043688412755727768e-02,-2.997219748795032501e-02,-9.316441603004932404e-03,-3.892577718943357468e-03,7.140181027352809906e-03,-6.614448130130767822e-02,1.021116389892995358e-03,2.169494889676570892e-02,2.380208112299442291e-02,-8.144685067236423492e-03,7.079305127263069153e-03,-5.814449861645698547e-03,-7.637803908437490463e-03,-4.369623959064483643e-03,2.891964279115200043e-03,-3.607005055528134108e-04,2.051093056797981262e-02,2.339145541191101074e-02,8.958336897194385529e-03,-1.300245989114046097e-02,2.881814492866396904e-03,-2.615724224597215652e-03,1.153979636728763580e-02,1.120363920927047729e-02,2.753343991935253143e-02,1.379925943911075592e-02,-7.401496637612581253e-03,7.692768122069537640e-04,-9.314509108662605286e-03,-2.208661288022994995e-02,-1.533610746264457703e-02,-1.011745817959308624e-02,7.619018200784921646e-03,1.876840367913246155e-02,3.477643802762031555e-02,4.897816572338342667e-03,-1.886649406515061855e-03,1.720312982797622681e-02,-1.988224126398563385e-02,-1.718435960356146097e-04,1.391552668064832687e-02,3.057522140443325043e-02,1.190517214126884937e-03,1.199431903660297394e-02
5.431413883343338966e-04,-2.663397695869207382e-03,8.857780136168003082e-03,1.367693394422531128e-02,-5.856512580066919327e-03,8.151717483997344971e-03,-2.152027562260627747e-02,7.837970741093158722e-03,-4.381789360195398331e-03,1.227596867829561234e-02,1.183664053678512573e-02,-8.646609261631965637e-03,-3.686513379216194153e-02,-1.267241896130144596e-04,9.897700510919094086e-03,-9.062288329005241394e-03,-2.831728570163249969e-02,-2.187653444707393646e-02,-5.639645736664533615e-03,5.556153599172830582e-03,-1.203404273837804794e-02,-1.190042681992053986e-02,1.467583468183875084e-03,6.800896953791379929e-03,5.813121795654296875e-03,-6.562459748238325119e-03,1.408065855503082275e-02,-1.716401055455207825e-02,-2.246310748159885406e-02,-3.051667241379618645e-03,-1.535011362284421921e-02,-1.918759942054748535e-02,-1.207762677222490311e-02,6.951371207833290100e-03,-1.783555187284946442e-02,9.367081336677074432e-03,6.315276026725769043e-03,-4.741347394883632660e-03,1.253537368029356003e-02,1.903884671628475189e-02,-2.803875878453254700e-02,4.388365778140723705e-04,-1.668265275657176971e-02,8.832820691168308258e-03,-2.268947195261716843e-03,8.788425475358963013e-04,8.346669375896453857e-03,9.228402748703956604e-03,-1.884652650915086269e-03,-6.095665507018566132e-03,1.951820304384455085e-04,1.401232182979583740e-02,9.565070271492004395e-03,1.711442321538925171e-02,1.251602359116077423e-02,-1.425184961408376694e-02,6.427227519452571869e-03,3.758136648684740067e-03,-1.341268362011760473e-04,-1.247127167880535126e-02,-1.284163561649620533e-03,-3.347225859761238098e-02,-8.171220310032367706e-03,6.371960509568452835e-03,7.487346883863210678e-03,4.833213984966278076e-03,-5.567932035773992538e-03,-1.183562725782394409e-02,-3.327438840642571449e-03,-6.409650202840566635e-03,1.891091093420982361e-02,-2.790973149240016937e-02,-2.257052809000015259e-03,-1.654824987053871155e-02,-1.457849424332380295e-02,-3.870353102684020996e-03,1.119357720017433167e-02,1.289503928273916245e-02,-3.179718740284442902e-03,-1.443347777239978313e-03,1.818700879812240601e-02,-2.599993487820029259e-03,8.343349210917949677e-03,-3.484891261905431747e-03,-1.205381564795970917e-02,-1.440463936887681484e-03,1.373158022761344910e-02,-3.755549667403101921e-03,8.154785260558128357e-03,-4.251070320606231689e-03,1.260733231902122498e-03,2.098820731043815613e-02,2.575167687609791756e-03,1.215685438364744186e-02,6.101956125348806381e-03,5.800537765026092529e-03,-1.360984146595001221e-02,6.383831496350467205e-04,4.681660793721675873e-03,1.081060036085546017e-03
-4.303064197301864624e-03,8.636697195470333099e-03,-4.600471351295709610e-03,-8.829789236187934875e-03,1.323898043483495712e-02,9.112881496548652649e-03,1.540908869355916977e-02,2.898274548351764679e-02,-7.203139364719390869e-03,-1.314913271926343441e-03,2.053117752075195312e-02,6.784836295992136002e-04,1.823401823639869690e-02,3.979113418608903885e-03,4.920126521028578281e-04,3.396534826606512070e-03,-5.638582631945610046e-02,8.393234573304653168e-03,3.404670208692550659e-02,-1.176020875573158264e-02,1.067356765270233154e-02,-7.596797309815883636e-03,1.221503689885139465e-02,1.795554533600807190e-02,4.726273939013481140e-03,-7.631525513716042042e-04,-1.162669062614440918e-02,9.412068873643875122e-03,3.301486372947692871e-03,-3.704496484715491533e-04,1.267223246395587921e-02,-1.342250220477581024e-02,-1.499787438660860062e-02,1.353136543184518814e-02,-4.032682161778211594e-03,3.070306405425071716e-02,-8.341888315044343472e-04,1.742260996252298355e-03,2.521458081901073456e-04,-1.075314357876777649e-02,-1.280467957258224487e-02,1.102798990905284882e-02,8.714552037417888641e-03,4.222278948873281479e-03,-1.540305186063051224e-02,-1.423566043376922607e-02,4.875069018453359604e-03,4.171761684119701385e-03,1.010757219046354294e-02,-4.640993662178516388e-03,6.625953130424022675e-03,-1.561118476092815399e-02,-3.142132656648755074e-03,1.910261437296867371e-02,-5.669679958373308182e-03,3.042821772396564484e-02,7.429767865687608719e-03,-5.175895057618618011e-03,4.706678912043571472e-03,1.222481485456228256e-02,-8.272671140730381012e-03,-7.426350563764572144e-02,-5.718054715543985367e-03,1.438019215129315853e-03,-2.353402040898799896e-02,3.724061651155352592e-03,1.536182127892971039e-02,-5.242186132818460464e-03,-1.078436383977532387e-03,-8.766936138272285461e-03,-1.779265888035297394e-02,9.992707520723342896e-03,1.820612885057926178e-02,-3.007273375988006592e-02,-1.423563063144683838e-02,-1.471109502017498016e-02,-1.773999887518584728e-03,2.054882235825061798e-03,-1.500846352428197861e-02,-6.193369626998901367e-03,-2.997971139848232269e-02,2.904490800574421883e-03,1.167178340256214142e-02,4.463922232389450073e-03,5.126665811985731125e-03,-6.312245503067970276e-03,2.192576415836811066e-02,1.288669276982545853e-02,-1.501086913049221039e-02,3.551658010110259056e-03,7.874384522438049316e-03,6.718038115650415421e-03,-7.533436641097068787e-03,-1.844955235719680786e-02,1.802018098533153534e-02,1.252657617442309856e-03,1.960038766264915466e-02,-1.283331681042909622e-02,-1.186224073171615601e-02,-2.618153952062129974e-02
1.419451646506786346e-02,3.673248691484332085e-03,-4.915656987577676773e-03,2.384294942021369934e-02,-1.512822508811950684e-02,6.899217609316110611e-03,-1.308139692991971970e-02,-3.358911722898483276e-03,-1.694320887327194214e-02,2.265130728483200073e-02,-1.244020834565162659e-02,-3.760993480682373047e-03,-1.118641067296266556e-02,1.060540042817592621e-02,-2.117674797773361206e-03,-1.996067818254232407e-03,3.587157279253005981e-02,7.447354029864072800e-03,-1.691760844551026821e-03,5.382169503718614578e-03,-6.015775725245475769e-04,-1.087492704391479492e-02,-6.866965908557176590e-03,-2.529371995478868484e-03,2.343622734770178795e-03,1.644721813499927521e-02,1.707109436392784119e-02,-5.482941865921020508e-03,7.914162240922451019e-03,1.093483809381723404e-02,-2.749464660882949829e-02,1.895742118358612061e-02,-3.222593106329441071e-03,-1.249158009886741638e-02,3.057052614167332649e-03,-5.883276928216218948e-03,-1.485180947929620743e-02,1.124086137861013412e-02,5.679522175341844559e-03,-8.618577383458614349e-03,1.874977722764015198e-02,5.286851897835731506e-03,-2.080683968961238861e-02,-4.917542915791273117e-03,5.953850341029465199e-04,-4.201749339699745178e-03,-1.044159196317195892e-02,-5.984575022011995316e-03,6.101722363382577896e-03,1.682169362902641296e-02,-1.299815624952316284e-02,3.038116963580250740e-03,5.646749399602413177e-03,3.950375132262706757e-03,-8.774054236710071564e-03,-1.860555930761620402e-04,1.000284776091575623e-02,-1.512550469487905502e-02,-1.113971415907144547e-02,-1.601464673876762390e-02,1.217099488712847233e-03,5.161385051906108856e-03,9.481227025389671326e-03,3.349046688526868820e-03,-6.039554718881845474e-04,-1.666917465627193451e-02,-1.277890615165233612e-02,-3.614352783188223839e-03,4.076786339282989502e-03,1.203327556140720844e-03,2.986484440043568611e-03,-1.770903728902339935e-02,3.817652584984898567e-03,1.221136189997196198e-02,-2.819723449647426605e-03,-8.546763099730014801e-03,2.291938522830605507e-03,-4.046122543513774872e-03,1.861469121649861336e-03,1.863133162260055542e-02,-4.260874411556869745e-04,-1.547103398479521275e-03,-2.749985782429575920e-03,1.752264564856886864e-03,4.966664128005504608e-03,-1.185728050768375397e-02,-2.106866613030433655e-02,-9.727967903017997742e-03,3.224072977900505066e-02,8.064231835305690765e-03,7.475380785763263702e-03,-1.140131242573261261e-02,-1.060988567769527435e-02,5.325875245034694672e-03,-1.411036588251590729e-02,-1.354460231959819794e-02,-4.084783606231212616e-03,1.696158200502395630e-02,-4.832269623875617981e-03,-8.056498132646083832e-03
1.854085829108953476e-03,-1.885865814983844757e-02,1.895379973575472832e-03,-5.987397395074367523e-03,8.792195469141006470e-03,-6.978614721447229385e-03,1.819163560867309570e-02,-9.273184463381767273e-03,1.552251074463129044e-02,8.355272002518177032e-03,5.423341412097215652e-03,2.085065352730453014e-04,-6.031460128724575043e-03,2.138333860784769058e-03,-1.794706797227263451e-03,-1.464894879609346390e-02,-4.984145518392324448e-03,-4.334237892180681229e-03,1.387203671038150787e-02,-3.263138933107256889e-04,-1.527960528619587421e-03,-4.106455482542514801e-03,-3.967111406382173300e-04,5.245438776910305023e-03,-4.188840277493000031e-03,-1.978859677910804749e-02,2.839703811332583427e-03,-1.917038485407829285e-02,2.379985526204109192e-02,-3.251196350902318954e-03,7.760438602417707443e-03,-1.358633581548929214e-02,-1.055252738296985626e-02,-5.445817019790410995e-03,-6.983457133173942566e-04,1.639513880945742130e-03,-1.580655574798583984e-02,-8.426938205957412720e-03,-3.612096887081861496e-03,-7.754574995487928391e-03,-4.928590729832649231e-03,1.067169569432735443e-02,1.739524118602275848e-02,6.543741619680076838e-05,-1.439649797976016998e-02,1.260754931718111038e-02,7.568683009594678879e-03,8.048831368796527386e-04,9.425276075489819050e-04,4.890385549515485764e-03,-4.807466641068458557e-03,-4.169628489762544632e-03,-1.156414020806550980e-02,-9.890994988381862640e-03,2.618627913761883974e-04,2.414099173620343208e-03,-6.715660449117422104e-03,7.251128554344177246e-03,9.119815193116664886e-03,-1.087243575602769852e-02,3.490532748401165009e-03,4.197274520993232727e-02,-1.799089647829532623e-02,-1.499738916754722595e-02,4.350875038653612137e-03,1.088897348381578922e-03,3.040998708456754684e-04,6.996238138526678085e-03,1.352168526500463486e-02,1.832008734345436096e-02,2.582608722150325775e-02,2.000422030687332153e-02,-6.193703971803188324e-03,-1.397730689495801926e-02,2.854522690176963806e-02,7.199102547019720078e-03,-1.287121139466762543e-02,4.133661743253469467e-03,1.301108393818140030e-03,-1.411660481244325638e-02,7.839105091989040375e-03,-8.703505620360374451e-03,4.529937868937849998e-04,6.478052586317062378e-03,1.502314768731594086e-02,1.974185742437839508e-02,2.789069898426532745e-03,-7.308766711503267288e-03,-1.022471860051155090e-02,5.440282169729471207e-03,-9.731831029057502747e-03,1.390407513827085495e-02,1.473270636051893234e-02,7.204730063676834106e-04,-1.142971683293581009e-02,-1.176913920789957047e-02,6.112243980169296265e-03,8.067685179412364960e-03,-7.943722419440746307e-03,7.679531816393136978e-03
1.551310718059539795e-02,6.750526838004589081e-03,-1.470367237925529480e-02,3.223298117518424988e-03,1.684516319073736668e-03,-6.447041872888803482e-03,1.137510407716035843e-02,1.774225942790508270e-02,-4.009624244645237923e-04,1.656297594308853149e-02,9.148856624960899353e-03,1.500716339796781540e-02,1.046559028327465057e-02,2.000401727855205536e-02,-2.242011716589331627e-03,5.609140265733003616e-03,-7.759204506874084473e-02,5.733517929911613464e-03,-1.947670616209506989e-02,-1.207945868372917175e-03,-4.289004206657409668e-02,-1.758652273565530777e-03,-2.194226253777742386e-03,1.268125046044588089e-02,-1.536221802234649658e-02,4.617875674739480019e-04,8.465310558676719666e-03,5.192635580897331238e-03,-9.781024418771266937e-04,9.332789108157157898e-03,-4.631345625966787338e-03,-1.013532653450965881e-02,-1.519716903567314148e-02,-8.109076879918575287e-03,-6.725196260958909988e-03,-9.362460114061832428e-03,4.395066294819116592e-03,-4.151740111410617828e-03,-8.859504014253616333e-03,-8.433685638010501862e-03,2.206822298467159271e-02,-5.773340235464274883e-04,9.437792934477329254e-03,-2.655649185180664062e-02,-1.069665979593992233e-02,1.015082933008670807e-02,7.805858273059129715e-03,-4.941649269312620163e-03,1.033562608063220978e-02,-1.503836363554000854e-02,-2.330238698050379753e-03,-3.289819881319999695e-02,1.153358630836009979e-02,1.511286478489637375e-02,4.013556241989135742e-02,-1.628008671104907990e-02,-5.593953188508749008e-03,3.998956084251403809e-02,7.572388276457786560e-03,-2.717107068747282028e-03,1.233418937772512436e-02,5.514692142605781555e-02,2.471558400429785252e-04,-8.138933219015598297e-03,9.238053113222122192e-03,8.674688637256622314e-03,-1.418169215321540833e-02,8.320561610162258148e-03,8.393160067498683929e-03,-1.175098866224288940e-02,2.205553092062473297e-02,1.489055994898080826e-02,1.109809707850217819e-02,-7.544592954218387604e-03,2.910517156124114990e-02,6.492574233561754227e-03,-2.600689977407455444e-02,-8.700134232640266418e-03,-4.068077541887760162e-03,-4.592417273670434952e-03,-1.089787203818559647e-02,-3.384552430361509323e-03,8.828513324260711670e-03,1.663669385015964508e-02,1.215483248233795166e-02,-7.684441749006509781e-03,2.577944844961166382e-02,1.021152269095182419e-02,-2.609060704708099365e-02,-2.705125510692596436e-02,4.278708714991807938e-03,9.730274789035320282e-03,-1.375377760268747807e-03,-1.564051955938339233e-02,-1.935088448226451874e-02,9.771184995770454407e-04,2.455780981108546257e-03,-6.083544343709945679e-03,4.150731861591339111e-02,-1.242520567029714584e-02
7.494046352803707123e-03,3.214454511180520058e-03,2.358908066526055336e-03,-5.834534764289855957e-03,-7.788792718201875687e-03,9.328266023658216000e-04,1.194758247584104538e-02,-1.212139148265123367e-02,-1.025333628058433533e-02,-3.671724349260330200e-03,6.802516989409923553e-03,-1.054964400827884674e-02,1.481959316879510880e-02,-9.068369865417480469e-03,1.935156621038913727e-02,2.465842105448246002e-02,3.501567989587783813e-02,-5.697585642337799072e-03,1.946110278367996216e-02,-8.542402647435665131e-03,-1.998805440962314606e-03,-1.289062388241291046e-02,-8.200419251807034016e-04,6.666469387710094452e-03,-1.296742260456085205e-02,1.174738537520170212e-02,1.793836802244186401e-02,2.451131353154778481e-03,-2.511522918939590454e-02,-3.407171694561839104e-03,-5.622362252324819565e-03,1.887324638664722443e-02,3.647623583674430847e-03,-4.983801394701004028e-03,4.581989720463752747e-03,3.401021007448434830e-03,2.121220715343952179e-02,-1.875211950391530991e-03,-1.287245075218379498e-03,5.664335563778877258e-03,-2.459726482629776001e-02,1.408963114954531193e-03,3.188388189300894737e-03,2.572505967691540718e-03,-1.036990899592638016e-02,-1.651037856936454773e-02,2.917235950008034706e-03,2.437608549371361732e-03,3.838076721876859665e-03,1.715198718011379242e-02,-5.181838758289813995e-03,8.885446004569530487e-03,4.198196344077587128e-03,-9.684150107204914093e-03,8.742798119783401489e-03,9.856253862380981445e-03,-8.377623744308948517e-03,-5.134016741067171097e-03,1.448910590261220932e-02,1.093588583171367645e-02,1.591839641332626343e-02,2.786810277029871941e-03,-9.508034214377403259e-03,9.891905821859836578e-03,-1.880358345806598663e-02,1.293439418077468872e-03,-5.318513140082359314e-04,-1.369287818670272827e-02,1.082549337297677994e-02,1.276352629065513611e-02,-4.048813600093126297e-03,-4.685302730649709702e-03,-1.492805313318967819e-02,1.785787940025329590e-02,5.567375104874372482e-03,1.438432559370994568e-02,-5.953895393759012222e-03,-4.830310062970966101e-04,3.625926095992326736e-03,7.866988889873027802e-03,-1.339262351393699646e-02,1.483271364122629166e-02,-2.231607213616371155e-03,1.938049681484699249e-02,3.574053291231393814e-03,1.674960926175117493e-02,-2.954774349927902222e-02,4.813808482140302658e-03,-6.416076328605413437e-03,7.833614014089107513e-03,-1.293006353080272675e-02,4.117248579859733582e-03,-6.579617504030466080e-03,-1.090520340949296951e-02,-7.856886833906173706e-03,6.511518266052007675e-03,9.611366316676139832e-03,3.976990934461355209e-03,-1.131422165781259537e-02,-1.295179780572652817e-02
-6.616515573114156723e-03,1.193209271878004074e-02,-1.736152917146682739e-02,2.958090743049979210e-03,1.433969847857952118e-02,-1.722842105664312840e-03,-1.600014511495828629e-03,8.637837134301662445e-03,4.789140541106462479e-03,-6.266295909881591797e-03,-4.806418437510728836e-03,8.250066079199314117e-03,1.670276559889316559e-02,3.465658752247691154e-03,1.170377712696790695e-02,3.472128510475158691e-02,4.554586019366979599e-03,-2.406773716211318970e-02,1.956379786133766174e-02,1.862104795873165131e-02,-4.983088932931423187e-03,-2.002376690506935120e-02,-1.801539561711251736e-03,-7.243115920573472977e-03,1.554696727544069290e-02,-2.055627293884754181e-02,-5.497684236615896225e-03,-6.228236015886068344e-03,8.234948851168155670e-03,-1.186274690553545952e-03,1.621284708380699158e-02,-4.922920837998390198e-03,1.184957474470138550e-02,1.037729810923337936e-02,1.573644403833895922e-04,2.064145868644118309e-03,8.832490071654319763e-03,1.205514557659626007e-02,1.821127021685242653e-03,9.073184803128242493e-03,1.401430554687976837e-02,5.120625253766775131e-03,2.919817110523581505e-03,-7.652573287487030029e-03,2.046183682978153229e-03,7.967801764607429504e-03,-1.550034992396831512e-02,8.881202898919582367e-03,-3.319001989439129829e-03,-1.362859737128019333e-03,3.810322843492031097e-03,-2.080833073705434799e-03,2.322649955749511719e-02,7.096599321812391281e-03,-1.739256642758846283e-02,2.496900502592325211e-03,3.896974725648760796e-03,-2.131029777228832245e-02,-7.169006392359733582e-03,1.446688780561089516e-03,5.360408220440149307e-03,1.195063069462776184e-02,2.683822531253099442e-03,9.891968220472335815e-03,-1.592823863029479980e-02,1.454976387321949005e-02,1.556017529219388962e-02,1.570960134267807007e-02,-2.087485045194625854e-04,1.689090766012668610e-02,-1.190702896565198898e-02,-7.620956283062696457e-03,6.863186135888099670e-04,5.712749436497688293e-03,8.027276955544948578e-03,1.523077115416526794e-02,8.948419708758592606e-04,7.094307336956262589e-03,-3.802044666372239590e-04,-9.925984777510166168e-04,-2.754655899479985237e-03,3.590241540223360062e-03,-1.938221976161003113e-02,-1.995897851884365082e-02,2.637532167136669159e-02,-1.145890681073069572e-03,1.239636912941932678e-02,2.503290306776762009e-03,-5.587491206824779510e-03,6.306043826043605804e-03,-4.900200292468070984e-03,6.219664588570594788e-03,-7.240622304379940033e-03,1.530413329601287842e-02,1.216277480125427246e-02,6.221919320523738861e-03,1.419323869049549103e-02,-1.377740642055869102e-03,-7.789603900164365768e-03,1.108237309381365776e-03
1.928769238293170929e-02,-1.738272793591022491e-02,-1.868792250752449036e-02,1.180486660450696945e-02,-2.002725563943386078e-02,-1.546949427574872971e-02,-3.653279691934585571e-02,-2.031620964407920837e-02,-4.973301198333501816e-03,-5.182572640478610992e-03,-1.338841742835938931e-03,1.156199909746646881e-02,1.675501465797424316e-02,5.361508112400770187e-03,9.405533783137798309e-03,4.974435083568096161e-03,3.872858732938766479e-02,2.212557941675186157e-02,-2.166976965963840485e-02,8.554770611226558685e-03,-9.896893985569477081e-03,1.163996104151010513e-02,-6.526890210807323456e-03,-3.530745394527912140e-03,-2.875428413972258568e-03,2.534990943968296051e-02,3.430180624127388000e-02,2.405880391597747803e-02,-8.058636449277400970e-03,1.405675336718559265e-02,-9.231820702552795410e-03,-8.871663361787796021e-03,2.759107016026973724e-02,-1.157438289374113083e-02,1.752336136996746063e-02,-3.454525768756866455e-02,-9.492222219705581665e-03,1.563064567744731903e-02,2.945657633244991302e-02,2.083583548665046692e-02,1.010919455438852310e-02,2.539549954235553741e-02,-3.059100173413753510e-02,2.187268249690532684e-02,4.095918498933315277e-03,1.942636445164680481e-02,-9.350451640784740448e-03,3.278006566688418388e-03,-1.986024528741836548e-02,1.000905036926269531e-02,-1.967292465269565582e-02,4.421362280845642090e-02,2.751873433589935303e-02,1.638474501669406891e-02,7.360565476119518280e-03,-3.296626359224319458e-02,-3.973386716097593307e-03,-1.982310041785240173e-02,3.535817191004753113e-02,-2.850963734090328217e-02,-1.766601577401161194e-02,3.020107373595237732e-02,1.575104892253875732e-02,3.518825769424438477e-02,2.330915629863739014e-02,2.821153402328491211e-02,-2.368240617215633392e-02,-6.971537368372082710e-04,-1.728658191859722137e-02,2.638197876513004303e-02,1.872690021991729736e-02,-8.534333668649196625e-03,-1.142245251685380936e-02,2.607727982103824615e-02,5.138005595654249191e-03,-2.198513969779014587e-02,-8.254271931946277618e-03,3.305793972685933113e-03,2.565465681254863739e-02,-1.217986922711133957e-02,1.195836625993251801e-02,2.708134613931179047e-02,-4.723271820694208145e-03,3.719012066721916199e-02,-2.019704133272171021e-02,-2.613369375467300415e-02,-1.960409991443157196e-02,-1.936158910393714905e-02,2.137768268585205078e-02,-4.203747026622295380e-03,3.829998522996902466e-02,-1.838648691773414612e-02,-1.149163115769624710e-02,1.117396913468837738e-02,-2.138334140181541443e-02,-1.674594543874263763e-02,-3.241797909140586853e-03,-1.478220219723880291e-03,2.042244933545589447e-02,-4.297811072319746017e-03
-1.128560397773981094e-03,3.638897556811571121e-03,-2.551326062530279160e-03,-2.068217284977436066e-02,4.204602539539337158e-02,3.080390579998493195e-02,-1.633015088737010956e-02,5.186253041028976440e-02,-2.777484012767672539e-03,-3.254352882504463196e-02,4.583131149411201477e-02,1.627819612622261047e-03,3.114822506904602051e-02,-1.721162535250186920e-02,-1.418605167418718338e-02,-8.175174705684185028e-03,3.828864311799407005e-03,3.376235440373420715e-02,4.467710480093955994e-02,-3.498202562332153320e-02,-2.622204460203647614e-02,1.249320618808269501e-02,-2.759328298270702362e-02,4.594149813055992126e-02,-2.232057228684425354e-02,-3.205519542098045349e-02,-2.440163493156433105e-02,-3.161760419607162476e-02,-6.500627379864454269e-03,-3.652276098728179932e-02,3.848537802696228027e-02,-7.011048495769500732e-02,-4.229830950498580933e-02,-3.210315015166997910e-03,-1.488356664776802063e-02,2.096270583570003510e-02,1.801983825862407684e-02,-2.002297341823577881e-02,-3.419829905033111572e-02,-3.054758906364440918e-02,-3.094181418418884277e-02,-2.768384106457233429e-02,4.515092819929122925e-02,-2.394468896090984344e-02,2.055042609572410583e-02,-1.583101786673069000e-02,7.819762453436851501e-03,-9.631772525608539581e-03,2.477347292006015778e-02,-4.040948674082756042e-02,-1.644884468987584114e-03,-7.280038297176361084e-02,-9.362592827528715134e-04,2.958455681800842285e-02,-1.687755249440670013e-02,3.382577374577522278e-02,3.741251304745674133e-02,1.364196836948394775e-02,-1.037099584937095642e-02,5.569520965218544006e-02,4.310615360736846924e-02,7.352340221405029297e-02,-5.119102448225021362e-02,1.339378114789724350e-02,-5.300891399383544922e-02,-4.758729785680770874e-02,-2.179932594299316406e-02,4.812452569603919983e-02,3.596563264727592468e-02,-1.092191040515899658e-02,-2.399892546236515045e-02,9.751121513545513153e-03,3.285036608576774597e-02,-6.180414929986000061e-02,-3.627112880349159241e-02,9.154103696346282959e-03,2.573692053556442261e-02,-8.172158151865005493e-03,-6.300496309995651245e-02,-3.509718552231788635e-02,-4.978724941611289978e-02,3.753937035799026489e-02,3.460576757788658142e-02,-2.210377715528011322e-03,2.075054682791233063e-02,4.105650261044502258e-02,1.704390533268451691e-02,4.280614107847213745e-02,-3.113284520804882050e-02,1.682918705046176910e-02,-5.933720991015434265e-02,4.914083331823348999e-02,2.864679321646690369e-02,-5.500838626176118851e-03,4.013806581497192383e-02,-3.430429846048355103e-02,3.427352383732795715e-02,-2.784483600407838821e-03,-5.152782797813415527e-02,-1.335967984050512314e-02
-8.307702839374542236e-03,8.445719868177548051e-05,-1.616050116717815399e-02,7.541611790657043457e-03,-1.151563847088254988e-04,1.679583452641963959e-02,-1.097424514591693878e-02,-3.055135719478130341e-02,-9.490381926298141479e-03,-7.386055309325456619e-03,3.271672641858458519e-03,3.976012580096721649e-03,-3.693882026709616184e-04,-8.783440105617046356e-03,2.455394528806209564e-02,1.078619807958602905e-02,-7.290850859135389328e-03,7.984734140336513519e-03,-3.168291645124554634e-03,1.105663031921721995e-04,-3.714103251695632935e-02,1.305999141186475754e-02,-1.433210726827383041e-02,2.287201583385467529e-02,1.366421207785606384e-02,5.133862607181072235e-03,1.170677947811782360e-03,3.489462425932288170e-03,-9.672408923506736755e-03,-1.517164986580610275e-02,-4.252282436937093735e-03,1.495724427513778210e-03,-8.355149067938327789e-03,7.160128094255924225e-03,4.614287987351417542e-03,-1.492828130722045898e-03,2.000346221029758453e-02,-2.133063971996307373e-02,5.859452765434980392e-03,2.878686413168907166e-03,6.309865508228540421e-03,5.566985346376895905e-03,1.832454465329647064e-02,-9.752000682055950165e-03,1.740423031151294708e-02,-5.285721272230148315e-03,-6.745626684278249741e-03,-1.475032977759838104e-02,-3.210393944755196571e-03,1.623527845367789268e-03,8.734191767871379852e-03,-6.529671372845768929e-04,-4.110757261514663696e-03,1.752754487097263336e-02,6.925348658114671707e-03,2.192060835659503937e-02,-7.354758679866790771e-03,2.173192985355854034e-02,8.521134965121746063e-03,5.806455737911164761e-04,-8.012701873667538166e-04,-5.660929903388023376e-02,-4.367681220173835754e-03,-1.595619251020252705e-03,4.042740445584058762e-03,3.630600403994321823e-03,-1.678155176341533661e-02,1.992240315303206444e-03,9.437299333512783051e-03,-1.046667527407407761e-02,-2.367338864132761955e-03,-4.695379175245761871e-05,-5.361292976886034012e-03,4.117766395211219788e-03,-1.959344604983925819e-03,7.390218786895275116e-03,-8.760374970734119415e-03,-1.220062747597694397e-02,-1.088629476726055145e-02,-2.115983515977859497e-02,-1.015272457152605057e-02,-2.240229025483131409e-02,1.419506873935461044e-02,-1.622001640498638153e-02,1.403900329023599625e-02,-6.178871262818574905e-03,4.088228568434715271e-02,2.188492938876152039e-02,-1.203284319490194321e-02,-8.117371238768100739e-03,-5.670684855431318283e-03,2.789753722026944160e-03,1.792557165026664734e-02,9.911182569339871407e-04,-1.968522847164422274e-04,-1.324891019612550735e-02,-2.561837900429964066e-03,4.963140003383159637e-03,3.270794637501239777e-03,1.674541737884283066e-03
-4.248668905347585678e-03,1.382487639784812927e-02,-1.218010205775499344e-02,4.073353018611669540e-03,2.739416994154453278e-02,-1.209639129228889942e-03,-4.802706651389598846e-03,1.085305307060480118e-02,1.703007705509662628e-02,-1.718921400606632233e-02,1.129025686532258987e-02,1.380593609064817429e-02,2.967383246868848801e-03,-2.114534843713045120e-03,1.075600367039442062e-02,3.001986071467399597e-03,1.600526832044124603e-02,-1.319757197052240372e-03,-2.084605657728388906e-04,3.064838936552405357e-03,-2.816738002002239227e-02,1.631773822009563446e-02,5.664272233843803406e-03,-1.298241433687508106e-03,2.264942601323127747e-02,1.656280457973480225e-02,7.053614128381013870e-03,-7.377683185040950775e-03,-8.989422582089900970e-03,-7.266697008162736893e-03,-1.800375059247016907e-02,1.715965336188673973e-03,-1.087311562150716782e-02,-1.052221283316612244e-02,6.585754454135894775e-03,-8.846709504723548889e-03,-4.786045756191015244e-03,-1.286102179437875748e-02,1.372448052279651165e-03,3.899688366800546646e-03,2.743221120908856392e-03,5.687622819095849991e-03,-2.424798905849456787e-03,8.964533917605876923e-03,4.882330074906349182e-03,1.024288497865200043e-02,1.426004245877265930e-02,-1.690812595188617706e-02,-2.047252096235752106e-02,8.525969460606575012e-03,-2.527570119127631187e-03,1.641107909381389618e-02,-1.614936394616961479e-03,1.658311858773231506e-02,-1.009055599570274353e-02,4.580272827297449112e-03,4.804789088666439056e-03,6.291002500802278519e-04,-4.539708141237497330e-03,-9.534309618175029755e-03,4.040645435452461243e-03,4.683505743741989136e-02,3.961215168237686157e-02,4.386627115309238434e-03,-4.478249698877334595e-03,-3.580502700060606003e-03,-3.063547797501087189e-02,-7.192976772785186768e-03,9.016912430524826050e-03,1.825099810957908630e-02,-8.121609571389853954e-04,1.945542916655540466e-02,-7.007367908954620361e-03,1.878825575113296509e-02,1.249226275831460953e-02,-9.821107611060142517e-03,7.024142541922628880e-04,-1.065895054489374161e-02,6.137946154922246933e-03,-6.353579461574554443e-03,-4.577902611345052719e-03,1.122368406504392624e-02,1.365439221262931824e-02,1.294581126421689987e-02,1.773611269891262054e-02,-1.505676377564668655e-02,-1.387354917824268341e-02,-5.306433886289596558e-03,-1.728667877614498138e-02,3.274870337918400764e-03,-5.211519077420234680e-03,-8.880633860826492310e-03,1.151920855045318604e-02,2.117613563314080238e-03,-1.463314425200223923e-02,-2.126192674040794373e-02,1.476306840777397156e-02,2.920320443809032440e-02,-2.537879347801208496e-02,2.175712957978248596e-03
-5.423149559646844864e-03,-4.267943091690540314e-03,1.203909050673246384e-02,1.801270432770252228e-02,-1.463810540735721588e-02,3.885300597175955772e-03,4.483113065361976624e-03,1.171340234577655792e-02,-2.469047904014587402e-02,4.877831786870956421e-02,-5.664310883730649948e-03,-4.153841175138950348e-03,1.290577836334705353e-02,1.132525876164436340e-02,-3.032418154180049896e-02,-1.889258064329624176e-02,4.460841044783592224e-02,6.539502064697444439e-04,-1.449434459209442139e-02,-9.244361426681280136e-04,2.332602255046367645e-02,9.899917058646678925e-03,5.364395212382078171e-03,-2.127068862318992615e-02,6.274494342505931854e-03,-1.230908092111349106e-02,4.843201022595167160e-03,1.405569259077310562e-02,2.280486933887004852e-02,-3.183314343914389610e-03,-4.227825906127691269e-03,-3.064864128828048706e-02,2.139474498108029366e-03,-1.069056149572134018e-02,1.023009512573480606e-02,-3.399793058633804321e-03,-5.198548547923564911e-03,-1.118001062422990799e-02,1.587365381419658661e-02,2.293502353131771088e-02,3.386185690760612488e-02,-1.175728812813758850e-02,2.407743828371167183e-03,8.108485490083694458e-03,5.064332857728004456e-03,5.450771190226078033e-03,1.001828163862228394e-02,-7.825642824172973633e-03,1.856984803453087807e-03,1.639589853584766388e-02,-3.045292757451534271e-02,3.104867786169052124e-02,9.841780178248882294e-03,1.448375638574361801e-02,1.384924515150487423e-03,-1.225725654512643814e-02,1.939508714713156223e-03,-3.750132024288177490e-02,5.713897757232189178e-03,-2.413349458947777748e-03,1.185694057494401932e-02,-1.162701938301324844e-02,-1.362813869491219521e-03,2.182464115321636200e-02,1.232139300554990768e-02,-3.755513112992048264e-03,-1.497534103691577911e-02,1.274759694933891296e-02,5.368197336792945862e-03,-7.102631032466888428e-03,-6.121045909821987152e-03,-3.987928852438926697e-03,-2.578402683138847351e-02,2.083029784262180328e-02,3.782944753766059875e-02,-2.723245881497859955e-03,-4.933892749249935150e-03,7.984997704625129700e-03,-1.956512220203876495e-03,2.068266971036791801e-03,1.840422488749027252e-02,7.237479090690612793e-03,-2.851009368896484375e-02,-3.302437020465731621e-03,6.776606664061546326e-03,-1.021594367921352386e-02,-1.944162696599960327e-02,-4.085790365934371948e-02,5.403995513916015625e-03,2.211201563477516174e-02,2.699211239814758301e-02,-2.932273782789707184e-03,2.053279802203178406e-02,7.859930337872356176e-05,-2.508790977299213409e-02,4.676986951380968094e-03,-2.391776069998741150e-02,-4.952053539454936981e-03,3.056687535718083382e-03,-2.075967751443386078e-02
2.005625516176223755e-02,-1.065721036866307259e-03,7.861523889005184174e-03,-1.950815878808498383e-02,2.212541410699486732e-03,3.989227116107940674e-03,-8.360325358808040619e-03,2.011290751397609711e-02,-5.945647135376930237e-04,3.783600172027945518e-03,-3.330956911668181419e-03,1.267547346651554108e-02,1.808578148484230042e-03,-1.131168473511934280e-02,-2.206790260970592499e-03,1.094389986246824265e-02,9.172947145998477936e-03,3.331821411848068237e-03,-2.009134739637374878e-03,6.939501035958528519e-04,9.473784826695919037e-03,-3.699719381984323263e-04,1.937717170221731067e-04,2.078747004270553589e-02,-1.249732798896729946e-03,2.673311159014701843e-02,1.461921166628599167e-02,-1.401868928223848343e-02,8.782996796071529388e-03,9.623369202017784119e-03,8.634028956294059753e-03,-9.444892057217657566e-04,1.237439364194869995e-02,-3.426645125728100538e-04,1.885607093572616577e-02,5.485749337822198868e-03,6.122753489762544632e-03,1.420025946572422981e-03,2.191571146249771118e-02,-1.024607475847005844e-02,1.075071189552545547e-02,1.318696141242980957e-02,8.056667633354663849e-03,-2.801903989166021347e-03,5.989262834191322327e-03,9.212086908519268036e-03,1.948680728673934937e-03,7.559740915894508362e-03,-2.836359897628426552e-03,-1.216845028102397919e-02,-5.326857324689626694e-03,-2.770017599686980247e-03,-1.153730042278766632e-02,4.603016190230846405e-03,1.116117113269865513e-03,7.935533300042152405e-03,1.540937833487987518e-02,-1.905814628116786480e-03,1.356512401252985001e-02,-3.714608959853649139e-03,-5.809685681015253067e-04,-7.102969102561473846e-03,-4.325139336287975311e-03,9.319595992565155029e-03,1.211844664067029953e-02,1.362512074410915375e-02,-9.636886417865753174e-03,1.604308187961578369e-02,-2.774526365101337433e-03,5.026841070502996445e-03,-1.104397792369127274e-02,3.655855078250169754e-03,1.513626892119646072e-02,1.804736629128456116e-02,1.903041824698448181e-02,5.716516636312007904e-03,1.415067166090011597e-02,6.137190386652946472e-03,7.144080940634012222e-03,5.633714608848094940e-03,1.555737201124429703e-02,3.249748842790722847e-03,1.176509447395801544e-02,1.830373331904411316e-02,-5.366978584788739681e-04,1.975914835929870605e-02,1.245101168751716614e-02,1.227812841534614563e-03,-9.450801648199558258e-03,-4.436834424268454313e-04,4.026933107525110245e-03,-1.141541451215744019e-02,1.219024229794740677e-02,1.919915154576301575e-02,1.080997940152883530e-02,1.642525778152048588e-03,5.904829595237970352e-03,-4.160316195338964462e-03,9.050269611179828644e-03,5.417283158749341965e-03
-1.989199314266443253e-03,8.879623375833034515e-03,1.743556186556816101e-02,4.798579902853816748e-04,1.032243482768535614e-02,3.744433633983135223e-03,3.023808822035789490e-02,1.723597943782806396e-02,-3.761973232030868530e-03,-1.603799499571323395e-02,1.336322282440960407e-03,-1.414480432868003845e-02,5.946979857981204987e-03,-8.477468974888324738e-03,-7.748834788799285889e-03,4.140065982937812805e-03,2.061983570456504822e-02,-4.547178745269775391e-03,-3.280015196651220322e-03,1.442870358005166054e-03,-1.371978130191564560e-02,-5.585997365415096283e-03,6.816426292061805725e-03,-4.441602795850485563e-04,-1.775799132883548737e-02,-5.822372157126665115e-03,4.273189697414636612e-03,2.029867097735404968e-02,6.567337550222873688e-03,-3.109808545559644699e-03,1.425329968333244324e-02,1.625654846429824829e-02,9.331298060715198517e-03,-2.947098342701792717e-03,-9.743691422045230865e-03,1.780169270932674408e-02,-2.200900344178080559e-03,-3.883321769535541534e-03,1.298553869128227234e-02,-3.642167430371046066e-03,-6.476209498941898346e-03,-4.146451130509376526e-03,-1.539427600800991058e-02,-4.491517320275306702e-03,1.116981450468301773e-02,1.784410327672958374e-03,1.487777661532163620e-02,-7.508739829063415527e-03,4.041552077978849411e-03,5.472494754940271378e-03,-1.280590542592108250e-03,-3.301369771361351013e-02,-4.137594718486070633e-03,8.022828027606010437e-03,4.603568930178880692e-03,-8.111541159451007843e-03,-1.646876148879528046e-02,-2.525390591472387314e-03,8.198216557502746582e-03,-1.521349418908357620e-02,1.220869715325534344e-03,-3.933095186948776245e-02,-5.364786833524703979e-03,-1.584362052381038666e-02,1.281325425952672958e-02,1.604803465306758881e-02,6.873168982565402985e-03,8.472934365272521973e-03,-2.635076874867081642e-03,1.321678701788187027e-02,1.544924918562173843e-02,-2.455881331115961075e-03,9.168771095573902130e-03,-3.947952296584844589e-03,6.356754602165892720e-05,3.257142845541238785e-03,3.896826412528753281e-03,-3.323965147137641907e-02,2.403213270008563995e-02,2.440227940678596497e-02,-1.832225918769836426e-02,-9.654828347265720367e-03,1.490094140172004700e-02,-1.362681575119495392e-02,-2.907837042585015297e-03,3.165389597415924072e-02,-1.538019254803657532e-02,3.312380751594901085e-03,1.507823821157217026e-02,-1.712035760283470154e-02,6.746730068698525429e-04,8.506987243890762329e-03,9.063899517059326172e-03,-3.519849618896842003e-03,1.481340848840773106e-03,8.073954842984676361e-03,-2.127273939549922943e-03,-3.932656720280647278e-03,1.036771293729543686e-02,7.316176779568195343e-03
3.221902763471007347e-03,1.800760626792907715e-02,1.246917340904474258e-02,-1.014447771012783051e-02,2.185835503041744232e-02,3.584211459383368492e-03,9.006700478494167328e-03,2.532351762056350708e-03,1.661547459661960602e-02,1.040269341319799423e-02,7.601504330523312092e-04,-1.084482995793223381e-03,1.579590328037738800e-02,-4.480571020394563675e-03,-9.113964624702930450e-03,1.334214024245738983e-02,4.832129925489425659e-04,-9.944369085133075714e-03,-6.749102612957358360e-04,1.355827506631612778e-02,5.951456725597381592e-03,-8.319227024912834167e-03,-1.117478497326374054e-02,8.078835904598236084e-03,1.086402498185634613e-02,2.008973388001322746e-03,-1.430947519838809967e-02,4.516453016549348831e-03,2.818986074998974800e-03,9.705653414130210876e-03,1.071485411375761032e-02,-1.697424217127263546e-03,1.913002319633960724e-02,5.546793108806014061e-04,8.215380832552909851e-03,-5.776318721473217010e-03,-2.151521481573581696e-02,1.944162882864475250e-02,1.751367747783660889e-02,3.715161234140396118e-03,-8.081506937742233276e-03,1.044205483049154282e-02,7.558044511824846268e-03,-3.166107693687081337e-03,-2.955701202154159546e-03,-1.043921243399381638e-02,9.328437037765979767e-03,2.537680789828300476e-02,2.978975418955087662e-03,1.400487124919891357e-02,2.004919946193695068e-02,1.312650158070027828e-03,7.248721551150083542e-03,1.072939601726830006e-03,6.594017613679170609e-03,8.267926983535289764e-03,3.792488249018788338e-03,1.755317114293575287e-02,-4.282577894628047943e-03,1.662519201636314392e-02,1.246201340109109879e-02,1.658019609749317169e-02,8.100889623165130615e-03,-5.462457891553640366e-03,-9.635183028876781464e-03,3.910328727215528488e-03,5.164080299437046051e-03,1.006372179836034775e-02,-3.869734006002545357e-03,-9.327567182481288910e-03,-2.826683688908815384e-03,8.916496299207210541e-03,1.517651486210525036e-03,-1.027388405054807663e-02,-2.136668423190712929e-03,7.570717018097639084e-03,5.954493768513202667e-03,1.440481469035148621e-02,9.297801181674003601e-03,8.934620767831802368e-03,2.021810784935951233e-02,1.802347227931022644e-02,-1.512377709150314331e-02,-4.197886679321527481e-03,-4.313795361667871475e-03,-4.694208037108182907e-03,2.412679139524698257e-03,-7.870821282267570496e-03,-7.283044978976249695e-04,-8.480487740598618984e-04,5.108797457069158554e-03,-9.797579608857631683e-03,-6.567101809196174145e-04,1.836156239733099937e-03,1.066047046333551407e-02,2.663493901491165161e-02,-3.903251141309738159e-03,-5.387866403907537460e-03,1.618892536498606205e-03,-8.710364811122417450e-03
7.967667654156684875e-03,-3.033983753994107246e-03,1.579646952450275421e-02,3.049040678888559341e-03,1.313686091452836990e-02,1.659104973077774048e-02,-3.021965036168694496e-03,-5.800441373139619827e-03,3.749304683879017830e-03,2.037890441715717316e-02,1.160176564007997513e-02,1.750868558883666992e-02,5.828259978443384171e-03,1.071390509605407715e-02,9.542235173285007477e-03,2.616205485537648201e-03,-1.298411935567855835e-02,3.735425183549523354e-03,-1.183683145791292191e-02,2.213965170085430145e-03,2.654891461133956909e-02,5.130412522703409195e-03,1.349470112472772598e-04,-1.865153573453426361e-02,3.901355434209108353e-03,-5.015980452299118042e-03,-7.385438308119773865e-03,1.109550427645444870e-02,-6.534136831760406494e-03,5.322519224137067795e-03,1.213150564581155777e-02,1.363219600170850754e-02,1.407262310385704041e-02,2.209798898547887802e-03,-1.003139745444059372e-02,1.182777993381023407e-02,3.933844156563282013e-03,1.035456173121929169e-02,-1.862870715558528900e-02,1.416196930222213268e-03,-7.158741820603609085e-03,-7.814657874405384064e-03,9.658858180046081543e-03,-3.677041968330740929e-03,9.973613778129220009e-04,1.830974407494068146e-02,2.528541721403598785e-03,2.379866200499236584e-04,-9.570350870490074158e-03,4.073396790772676468e-03,-7.938042283058166504e-03,-1.185457315295934677e-02,3.566657379269599915e-02,-9.881922975182533264e-03,2.740629576146602631e-02,3.410093951970338821e-03,1.363120973110198975e-02,5.607231520116329193e-03,6.967673543840646744e-03,-1.247262675315141678e-02,9.063854813575744629e-03,-3.072205930948257446e-02,2.473553642630577087e-03,3.135712351649999619e-03,9.768628515303134918e-03,2.765611279755830765e-04,3.454566001892089844e-03,9.631127119064331055e-03,1.394519302994012833e-02,-1.361089292913675308e-02,9.437465108931064606e-03,-7.145167328417301178e-03,1.252110302448272705e-02,-1.304829143919050694e-03,1.449548453092575073e-02,-6.946234963834285736e-03,1.163760386407375336e-02,2.806294942274689674e-04,1.555056683719158173e-02,3.487826324999332428e-03,2.407073415815830231e-02,2.384233754128217697e-03,6.272701546549797058e-03,-1.546591613441705704e-02,-3.782645566388964653e-03,3.898708848282694817e-03,-4.593701101839542389e-03,5.239415448158979416e-03,1.639886759221553802e-02,1.821701414883136749e-02,6.403795443475246429e-03,1.024336088448762894e-03,-8.311283774673938751e-03,-6.672174669802188873e-03,9.294088929891586304e-03,7.074707187712192535e-03,-7.082222029566764832e-03,9.903733618557453156e-03,-1.100739580579102039e-03,1.916958019137382507e-02
2.404066920280456543e-02,5.261486023664474487e-02,3.593387827277183533e-02,5.610796157270669937e-03,4.072984680533409119e-03,2.076763287186622620e-02,2.643398381769657135e-02,-1.540404651314020157e-02,-3.594815358519554138e-02,-3.481160104274749756e-02,5.289429333060979843e-03,-2.823557332158088684e-02,-6.394851952791213989e-02,-1.236452441662549973e-02,1.388686895370483398e-02,6.138220429420471191e-03,-5.657175928354263306e-02,4.200151190161705017e-02,-5.472674034535884857e-03,1.067383028566837311e-02,2.430077455937862396e-02,-2.202495746314525604e-02,-2.151148626580834389e-03,3.299590572714805603e-02,-7.005947642028331757e-03,-2.708050888031721115e-04,3.028444200754165649e-02,4.733014106750488281e-02,3.637301269918680191e-03,-1.361710950732231140e-02,-4.415969178080558777e-02,3.830584883689880371e-02,-1.219841931015253067e-02,2.824515476822853088e-02,3.302399814128875732e-02,4.161164164543151855e-02,1.328227575868368149e-02,9.721155278384685516e-03,-4.356541857123374939e-02,1.073772273957729340e-02,-7.113718986511230469e-02,-1.865873485803604126e-02,-2.633619494736194611e-02,1.840699091553688049e-02,-1.599526219069957733e-02,-3.470234945416450500e-02,-1.980719342827796936e-02,2.515136823058128357e-02,5.129534285515546799e-03,6.701971869915723801e-03,-9.457593783736228943e-03,-3.284057602286338806e-02,-2.032165229320526123e-02,-3.462382033467292786e-02,-2.408140152692794800e-02,4.070513695478439331e-02,-8.961140178143978119e-03,2.231535315513610840e-02,1.914263819344341755e-03,4.366287216544151306e-02,3.463722020387649536e-02,-5.290398001670837402e-02,5.200914666056632996e-02,4.066099599003791809e-02,-4.108988121151924133e-02,1.264657941646873951e-03,-1.317451708018779755e-02,-1.402612775564193726e-02,-2.756411582231521606e-02,1.875089295208454132e-02,-2.790937572717666626e-02,-3.525820001959800720e-02,5.140814557671546936e-02,4.066905006766319275e-02,-1.868002116680145264e-02,1.762263104319572449e-02,1.077840290963649750e-02,1.650445163249969482e-03,2.845974452793598175e-02,-6.625884678214788437e-03,2.715643309056758881e-02,7.661864161491394043e-03,2.485829591751098633e-02,-3.801051527261734009e-02,1.643893122673034668e-02,-2.620949223637580872e-02,1.410839334130287170e-02,3.049801103770732880e-02,-2.894423436373472214e-03,6.587007082998752594e-03,-4.345132410526275635e-02,3.478384017944335938e-02,-1.521704159677028656e-02,-1.030741538852453232e-02,3.578024730086326599e-02,1.808073930442333221e-02,2.321773499716073275e-04,1.385303214192390442e-03,-1.420831214636564255e-02,-2.025118842720985413e-02
-1.435307785868644714e-03,-6.169407162815332413e-03,6.013170816004276276e-03,9.457953274250030518e-03,-2.420398965477943420e-02,1.335989776998758316e-02,6.420811172574758530e-03,-5.789028480648994446e-03,1.926839468069374561e-03,8.043519221246242523e-03,8.936842903494834900e-03,2.184577472507953644e-02,1.642577163875102997e-02,1.000029686838388443e-02,-1.671158010140061378e-03,-2.580675855278968811e-02,4.400880262255668640e-02,9.114181622862815857e-03,-1.113369874656200409e-02,6.057257298380136490e-03,3.757488727569580078e-02,3.716207295656204224e-02,7.735691498965024948e-03,-2.426495961844921112e-02,2.427992224693298340e-02,-3.731114557012915611e-03,1.372308004647493362e-02,1.199234556406736374e-02,3.560042381286621094e-02,-3.071143524721264839e-03,-1.636860892176628113e-02,-1.987980678677558899e-02,-2.432297682389616966e-03,2.035176195204257965e-02,1.080373069271445274e-03,-3.519447054713964462e-03,8.942449465394020081e-03,-1.107630226761102676e-02,9.924015030264854431e-03,8.267036639153957367e-03,1.695917733013629913e-02,-5.192796699702739716e-03,-1.859714090824127197e-02,2.675947267562150955e-03,-2.540173009037971497e-02,5.386206321418285370e-03,2.394487150013446808e-03,-1.711907982826232910e-02,-1.054800767451524734e-02,1.959312148392200470e-02,6.519817747175693512e-03,9.868157096207141876e-03,2.624957822263240814e-02,8.515344001352787018e-03,-2.036085538566112518e-02,-3.308056853711605072e-03,1.509894151240587234e-03,-9.946621023118495941e-03,-5.015624687075614929e-03,3.143483074381947517e-03,-2.678119763731956482e-02,8.513410575687885284e-03,-3.227137401700019836e-02,-4.064328037202358246e-03,1.381552685052156448e-02,2.609168179333209991e-03,-9.679645299911499023e-03,-5.301722325384616852e-03,1.853118464350700378e-02,1.045471988618373871e-02,-5.956571083515882492e-03,8.063849993050098419e-03,-1.495398697443306446e-03,-3.129801945760846138e-03,3.512141481041908264e-02,8.304196526296436787e-04,5.882753524929285049e-03,9.714037179946899414e-03,2.543215267360210419e-02,1.587260328233242035e-02,1.871279627084732056e-02,-7.506773807108402252e-03,-2.316778292879462242e-03,6.052510812878608704e-03,-2.010079799219965935e-03,-1.827422156929969788e-02,-8.532313629984855652e-03,-2.295333519577980042e-02,1.222582906484603882e-02,-2.899367129430174828e-03,-1.134914997965097427e-02,-3.819671273231506348e-02,8.126924745738506317e-03,1.732475869357585907e-02,-2.016110531985759735e-02,1.358447596430778503e-02,-5.997066851705312729e-03,2.937040105462074280e-02,-2.945044450461864471e-02,-7.442378904670476913e-03
-6.037807906977832317e-04,1.078776363283395767e-02,-5.468673072755336761e-03,1.483529992401599884e-02,8.008874021470546722e-03,3.273681178689002991e-02,-1.431592088192701340e-02,-8.444001898169517517e-03,-2.419775165617465973e-02,1.270502619445323944e-02,1.427298411726951599e-02,-9.876031428575515747e-03,1.662708260118961334e-02,-1.855927519500255585e-03,5.166020244359970093e-03,-6.505963858217000961e-03,-2.396669611334800720e-02,-2.859764732420444489e-02,1.051088329404592514e-02,-4.350356291979551315e-03,9.623208083212375641e-03,-5.302459001541137695e-03,3.825478954240679741e-03,9.470757795497775078e-04,-2.903442271053791046e-02,1.043480727821588516e-02,-2.300495654344558716e-02,1.272965781390666962e-02,-1.972608268260955811e-02,-3.357935324311256409e-02,-2.917777933180332184e-02,-4.351979587227106094e-03,-5.914054345339536667e-03,2.120718918740749359e-02,-1.251646224409341812e-02,3.168950602412223816e-02,6.410623318515717983e-04,-5.089187063276767731e-03,-5.950962193310260773e-03,-9.341094642877578735e-03,2.943917922675609589e-02,2.874467335641384125e-02,-2.927384339272975922e-03,-2.390381135046482086e-02,-1.876640878617763519e-02,-1.166210137307643890e-02,-5.556807082029990852e-05,-2.299591526389122009e-02,8.935879915952682495e-03,-1.451193820685148239e-02,-1.773581607267260551e-04,-2.432499267160892487e-02,6.246204953640699387e-03,-5.223534535616636276e-03,2.239578217267990112e-02,1.411446277052164078e-02,-2.360838989261537790e-04,2.149235270917415619e-02,2.051344886422157288e-02,4.680699668824672699e-03,9.218241902999579906e-04,-2.425240166485309601e-02,-1.938056945800781250e-02,-2.157622016966342926e-02,-3.202509507536888123e-02,1.858148165047168732e-02,2.820097841322422028e-03,5.800778511911630630e-03,1.745467633008956909e-02,1.213311962783336639e-02,2.733197528868913651e-03,-2.292306395247578621e-03,2.871454693377017975e-02,-1.546198129653930664e-02,-7.609035819768905640e-03,-4.637158475816249847e-03,6.025372538715600967e-03,6.300225853919982910e-03,2.964590443298220634e-03,-1.934343948960304260e-02,-2.709021791815757751e-02,-1.297751069068908691e-02,4.374490585178136826e-03,-2.505395747721195221e-02,1.023853663355112076e-02,7.077001500874757767e-04,1.022649835795164108e-02,2.210989966988563538e-02,-4.081681836396455765e-03,-7.931009866297245026e-03,9.009559289552271366e-04,2.159923501312732697e-02,6.639217026531696320e-03,-1.816917955875396729e-02,2.378742396831512451e-02,3.543477272614836693e-03,1.022224407643079758e-02,-3.970645740628242493e-02,9.107823483645915985e-03,-2.362200990319252014e-02
2.148281969130039215e-02,5.997480824589729309e-02,-3.107655607163906097e-02,4.891554266214370728e-02,-2.930893376469612122e-02,9.628584608435630798e-03,4.275289538782089949e-04,3.298309817910194397e-02,5.846863985061645508e-02,5.349394306540489197e-02,4.777275025844573975e-02,3.710074350237846375e-02,-6.522607803344726562e-02,4.558537527918815613e-02,-2.240781672298908234e-02,-5.769907683134078979e-02,2.092598378658294678e-02,-1.393408863805234432e-03,-1.051288377493619919e-02,-5.095497891306877136e-02,-2.861779369413852692e-02,-5.759473145008087158e-02,4.989755526185035706e-02,5.851453635841608047e-03,2.069372870028018951e-02,-5.062190443277359009e-02,-2.731343172490596771e-02,-2.250267937779426575e-02,-3.662220761179924011e-02,4.459593817591667175e-02,-4.926122725009918213e-02,2.318554744124412537e-02,3.917369525879621506e-03,9.043741971254348755e-03,-3.121695294976234436e-02,-2.452348172664642334e-02,-2.610316872596740723e-02,-2.242077514529228210e-02,3.214371204376220703e-02,3.054110892117023468e-02,-2.733269357122480869e-04,2.467844821512699127e-02,2.486019954085350037e-02,-3.730493038892745972e-02,4.743177816271781921e-02,1.732532680034637451e-02,4.764938354492187500e-02,-3.114252910017967224e-02,-8.914221078157424927e-03,-1.278774067759513855e-02,5.099153518676757812e-02,-1.957508549094200134e-02,4.087715968489646912e-02,3.608473762869834900e-02,5.274658650159835815e-02,1.681433245539665222e-02,4.236510023474693298e-02,-2.861924096941947937e-02,-5.624960362911224365e-02,-5.210236087441444397e-02,-3.734526410698890686e-02,9.135230630636215210e-02,-6.132337078452110291e-02,-6.850050389766693115e-02,4.252207279205322266e-02,-3.723109513521194458e-02,2.281899936497211456e-02,-9.354783222079277039e-03,-1.608576392754912376e-03,-2.465749531984329224e-02,3.347337990999221802e-02,2.974277362227439880e-02,-1.035829726606607437e-02,-6.695206975564360619e-04,-1.675765775144100189e-02,-6.019337475299835205e-02,-2.692031487822532654e-02,3.807934746146202087e-02,-2.982736192643642426e-02,-9.667297825217247009e-03,1.031625457108020782e-02,-4.447590559720993042e-02,8.709757588803768158e-03,-3.111342340707778931e-02,5.493232980370521545e-03,-5.187988746911287308e-03,-2.091649547219276428e-02,-2.384483441710472107e-02,-1.402191352099180222e-02,3.717401996254920959e-02,5.626181513071060181e-02,-2.499259635806083679e-02,5.277439951896667480e-02,-1.138824690133333206e-02,4.714775830507278442e-03,-3.222830593585968018e-02,-3.748382627964019775e-02,5.532722920179367065e-02,-1.976133137941360474e-02,3.887344151735305786e-02
3.922279179096221924e-02,6.735914386808872223e-03,1.397741306573152542e-02,-1.635558530688285828e-02,7.347563281655311584e-03,4.092128074262291193e-04,-1.563549414277076721e-02,3.553901799023151398e-03,1.827617175877094269e-02,-4.387117456644773483e-03,1.262167934328317642e-02,-1.260029897093772888e-02,-3.886215621605515480e-03,-1.903654821217060089e-02,1.266129314899444580e-02,-2.456101588904857635e-02,-1.468577235937118530e-02,2.436859160661697388e-02,-5.036444403231143951e-03,2.704510930925607681e-03,1.667825505137443542e-02,-1.146279275417327881e-02,-1.496002264320850372e-02,2.749316208064556122e-02,3.074424713850021362e-02,1.857428462244570255e-03,7.413964718580245972e-03,1.142687909305095673e-02,-4.457454755902290344e-02,-1.013709884136915207e-02,-1.454938389360904694e-02,3.657263517379760742e-02,2.452734112739562988e-02,-1.828098110854625702e-02,1.470469986088573933e-03,1.789118722081184387e-02,-1.729008369147777557e-02,1.190740708261728287e-02,-1.496954914182424545e-02,6.043823901563882828e-03,-3.624648973345756531e-02,-1.536691002547740936e-02,-4.386348184198141098e-03,1.139162760227918625e-02,-3.586439415812492371e-04,-3.931135870516300201e-03,-1.257905550301074982e-02,2.869274467229843140e-02,1.215751934796571732e-02,3.294185036793351173e-03,-8.379764854907989502e-03,3.334992099553346634e-03,8.405818603932857513e-03,-1.329760998487472534e-02,-7.875487208366394043e-03,3.925388678908348083e-03,4.409454297274351120e-03,2.357964171096682549e-03,-1.278697419911623001e-02,-2.356527931988239288e-02,1.346274185925722122e-02,-5.801893398165702820e-02,1.317518576979637146e-02,3.140093386173248291e-02,-1.147532928735017776e-02,-3.191871196031570435e-02,3.172107785940170288e-02,4.409701097756624222e-03,-9.520356543362140656e-03,1.642198488116264343e-02,1.768482849001884460e-02,-4.112257063388824463e-02,4.688632488250732422e-02,6.280548870563507080e-03,3.819758538156747818e-03,2.586325816810131073e-02,-1.453255396336317062e-02,1.713353581726551056e-02,8.844462223351001740e-03,1.810542121529579163e-02,4.340771585702896118e-02,3.031375817954540253e-02,4.299349617213010788e-03,3.039685776457190514e-03,-1.844496279954910278e-02,3.590305335819721222e-03,-1.884157210588455200e-02,-2.534226141870021820e-02,7.626138161867856979e-03,9.548601694405078888e-03,6.412879563868045807e-03,8.600347675383090973e-03,1.422052551060914993e-02,2.170269750058650970e-02,-1.089298538863658905e-02,3.235893324017524719e-02,-1.269100140780210495e-02,5.678935907781124115e-03,-2.510988898575305939e-02,-9.269467554986476898e-03
1.812058128416538239e-02,-1.548942457884550095e-02,6.668516434729099274e-03,1.124718133360147476e-02,-7.643366698175668716e-03,1.882877387106418610e-02,1.564305834472179413e-02,1.224030274897813797e-02,-7.007481530308723450e-03,-2.448008395731449127e-02,1.660301699303090572e-03,-5.075262743048369884e-05,-1.221303176134824753e-02,-1.995792612433433533e-02,1.148720085620880127e-02,1.169534400105476379e-03,-1.576389931142330170e-02,1.889373548328876495e-02,1.954358257353305817e-02,1.269793976098299026e-02,1.648903638124465942e-02,4.495459725148975849e-04,-2.000501565635204315e-02,2.319885231554508209e-02,-2.006374299526214600e-03,1.573519315570592880e-03,3.470370173454284668e-02,-3.122506663203239441e-03,2.380287973210215569e-03,-1.731776259839534760e-02,-9.861931204795837402e-03,3.789275418967008591e-03,-2.470326609909534454e-03,5.761932116001844406e-03,1.528025791049003601e-02,3.643535450100898743e-02,1.209118310362100601e-02,1.170443836599588394e-02,-4.637245088815689087e-03,1.475603692233562469e-02,-1.604159735143184662e-02,-8.079224266111850739e-03,-3.551315283402800560e-03,1.866173930466175079e-02,-4.988871049135923386e-03,-3.875107737258076668e-03,-1.402289327234029770e-02,-2.884464804083108902e-03,1.111695263534784317e-02,-2.313501900061964989e-03,-2.053565159440040588e-02,-1.988153904676437378e-03,1.329012680798768997e-03,-2.332968870177865028e-03,-4.396894201636314392e-02,6.772078573703765869e-03,-9.988657198846340179e-03,1.834004186093807220e-02,1.580931805074214935e-02,1.009796001017093658e-02,1.048171520233154297e-02,-5.313888937234878540e-02,7.921610958874225616e-03,1.492588594555854797e-02,-8.064534515142440796e-03,6.512582302093505859e-03,-4.883273039013147354e-03,6.093168631196022034e-04,-1.021208055317401886e-02,1.771074905991554260e-02,-3.189288079738616943e-03,-2.527807839214801788e-02,4.464778676629066467e-02,-3.878457238897681236e-03,-1.991682685911655426e-02,1.846947270678356290e-04,-6.088404334150254726e-04,-2.503525279462337494e-02,9.546650690026581287e-04,3.358700545504689217e-03,4.586582537740468979e-03,2.910898625850677490e-02,1.387610286474227905e-02,1.985069923102855682e-02,1.077673677355051041e-02,-1.960300840437412262e-02,1.568846404552459717e-02,2.688075043261051178e-02,1.242983993142843246e-02,1.601612940430641174e-02,-2.588549070060253143e-02,2.865924499928951263e-03,2.415561815723776817e-03,-1.924921013414859772e-02,-4.504646174609661102e-03,-1.790173002518713474e-03,1.672317646443843842e-02,-1.481732260435819626e-02,-4.865201190114021301e-03,-2.190229669213294983e-02
1.803950779139995575e-02,1.466881763190031052e-02,-1.836096122860908508e-02,-1.032157614827156067e-02,6.047558039426803589e-03,8.856517262756824493e-03,6.341353058815002441e-03,1.136587839573621750e-02,-3.091834299266338348e-02,1.000062469393014908e-02,9.487200528383255005e-03,1.680579409003257751e-02,4.493510350584983826e-03,4.139930009841918945e-03,1.174873579293489456e-02,-9.105888195335865021e-03,-3.488873317837715149e-02,1.283593475818634033e-02,-2.124333567917346954e-02,1.135522499680519104e-02,1.037253160029649734e-02,1.498935092240571976e-02,1.393218617886304855e-02,9.078701958060264587e-03,2.118711592629551888e-03,2.442308887839317322e-02,1.602194830775260925e-02,7.296880241483449936e-03,1.004241220653057098e-02,-1.708853989839553833e-02,-1.792501471936702728e-02,-3.043356910347938538e-02,1.608386822044849396e-02,1.177597697824239731e-02,-1.000551041215658188e-02,1.100237853825092316e-02,3.212195634841918945e-02,1.165995374321937561e-02,1.517946086823940277e-02,-6.461468990892171860e-03,3.233169764280319214e-02,2.556403726339340210e-02,4.900150001049041748e-03,-1.347184367477893829e-02,4.064315930008888245e-03,1.031284686177968979e-02,2.269029803574085236e-02,1.162413973361253738e-02,-1.097344234585762024e-02,1.211844850331544876e-02,1.293136924505233765e-02,1.746589201502501965e-03,9.247506968677043915e-03,3.981518559157848358e-03,-1.393551006913185120e-02,-8.732508867979049683e-03,7.908054627478122711e-03,1.490901689976453781e-02,-9.903183206915855408e-03,-1.959343068301677704e-02,6.279423832893371582e-03,-2.669777721166610718e-03,-8.456579409539699554e-03,-1.015523169189691544e-02,1.289350632578134537e-02,1.769992336630821228e-02,-1.194481621496379375e-03,-1.571402885019779205e-02,3.103381721302866936e-03,1.449819683330133557e-04,3.922514151781797409e-03,1.157369464635848999e-02,1.237911451607942581e-02,1.223552320152521133e-02,7.600123062729835510e-03,-5.649454891681671143e-03,-2.700298326089978218e-03,-2.852440811693668365e-03,7.802955340594053268e-03,6.399414967745542526e-03,-1.837659068405628204e-02,-7.785792928189039230e-03,1.331581547856330872e-02,6.755035370588302612e-03,-2.175103873014450073e-02,1.476859301328659058e-02,-1.527060754597187042e-02,-1.220864616334438324e-02,1.370511576533317566e-02,9.001136757433414459e-03,1.917114830575883389e-03,3.460020816419273615e-04,9.263343177735805511e-03,-2.310377079993486404e-03,-5.354661960154771805e-03,-4.600489046424627304e-03,-7.978772744536399841e-03,1.141557749360799789e-02,-4.624058026820421219e-03,2.875772072002291679e-03
7.476454600691795349e-03,-1.165095437318086624e-02,9.475485421717166901e-03,-3.207882167771458626e-03,-1.213473174721002579e-02,-5.122752045281231403e-04,-5.125379655510187149e-03,-4.359268024563789368e-02,9.154340252280235291e-03,-5.222591571509838104e-03,-7.217959966510534286e-03,1.330340746790170670e-02,-2.262630499899387360e-02,-4.430149216204881668e-03,1.493503339588642120e-02,-8.438121527433395386e-03,-4.237627983093261719e-02,1.947416551411151886e-02,-8.984682499431073666e-04,1.738040335476398468e-02,2.924843505024909973e-02,-2.521221525967121124e-03,1.395008410327136517e-03,2.033853158354759216e-02,2.775777131319046021e-02,-1.098877377808094025e-02,1.943157170899212360e-03,-2.141105756163597107e-02,-2.062624786049127579e-03,-1.632732804864645004e-03,-3.288832306861877441e-02,2.415636926889419556e-02,1.910292170941829681e-02,1.856872066855430603e-02,-4.703476559370756149e-03,4.708069376647472382e-03,4.682002123445272446e-03,1.446097064763307571e-02,-2.684153988957405090e-02,-2.671564696356654167e-03,-1.706436835229396820e-02,-1.003754511475563049e-02,2.945499680936336517e-02,-8.358812890946865082e-03,-6.798336282372474670e-03,1.211967319250106812e-02,1.246740389615297318e-02,1.538152806460857391e-02,-2.128356695175170898e-02,-6.819988135248422623e-03,1.631897129118442535e-02,-1.045410148799419403e-02,1.340995263308286667e-02,7.804943248629570007e-03,2.526496537029743195e-02,-8.343288674950599670e-03,9.133301675319671631e-03,1.974856294691562653e-02,1.606668718159198761e-02,2.325103431940078735e-02,1.178222149610519409e-02,5.086297751404345036e-04,7.863798964535817504e-05,2.045870292931795120e-03,3.231170121580362320e-03,-1.434333901852369308e-02,1.378753595054149628e-02,-2.194639667868614197e-02,2.460077404975891113e-02,-1.640833541750907898e-02,-5.339310504496097565e-03,7.190163712948560715e-03,3.774915635585784912e-02,-1.131711807101964951e-02,1.556768838781863451e-04,8.453022455796599388e-04,-2.250933088362216949e-02,2.136282157152891159e-03,9.284436702728271484e-03,-9.958451613783836365e-03,6.944476626813411713e-03,-7.255611475557088852e-03,-1.078618410974740982e-02,-1.024572551250457764e-02,1.219027582556009293e-02,3.683306509628891945e-03,-1.227285247296094894e-02,1.500005833804607391e-02,1.494665164500474930e-03,2.875637635588645935e-02,3.742092056199908257e-03,1.735460758209228516e-02,-2.111528068780899048e-03,-1.986306346952915192e-02,3.600158743211068213e-05,3.570907935500144958e-02,-2.142172073945403099e-03,9.732380509376525879e-03,-6.041524931788444519e-03,1.393259596079587936e-02
1.346063986420631409e-02,1.525849569588899612e-02,6.819727132096886635e-04,-4.551135003566741943e-03,-1.182492589578032494e-03,-1.747368462383747101e-02,1.227642409503459930e-02,1.585941412486135960e-03,1.879764348268508911e-02,-1.102394703775644302e-02,1.355025172233581543e-02,-3.399929031729698181e-03,1.367773395031690598e-03,8.442282676696777344e-03,-1.139351259917020798e-02,2.039819257333874702e-03,-2.901783399283885956e-02,2.052192809060215950e-03,-5.149517673999071121e-03,1.737083424814045429e-03,9.191504679620265961e-03,8.792567998170852661e-03,-1.623211801052093506e-02,4.487833008170127869e-03,-1.755899051204323769e-03,-5.399033427238464355e-03,-2.425827551633119583e-03,-1.524513773620128632e-02,-8.605510927736759186e-03,1.759681385010480881e-03,-4.234738182276487350e-03,1.095157396048307419e-02,1.517591439187526703e-02,1.370819564908742905e-02,7.269499823451042175e-03,-6.593024590983986855e-04,5.032179411500692368e-03,-3.297808114439249039e-03,-1.747651607729494572e-03,-3.220828250050544739e-02,6.379359401762485504e-03,1.058099698275327682e-02,-6.678830832242965698e-03,-6.384189706295728683e-03,-1.043829508125782013e-02,1.330412738025188446e-02,1.816475763916969299e-02,-9.306250140070915222e-03,1.363690942525863647e-02,6.861289963126182556e-03,7.853864808566868305e-04,-7.700833491981029510e-03,-1.997885759919881821e-03,1.507232710719108582e-02,-2.230112440884113312e-03,2.053707093000411987e-02,-6.388179492205381393e-03,2.646524459123611450e-02,8.676345460116863251e-03,1.735845766961574554e-02,-4.933891352266073227e-03,-1.419433951377868652e-02,1.054425956681370735e-03,2.384074032306671143e-03,1.639037946006283164e-04,-6.898712366819381714e-03,5.177395883947610855e-03,-2.112474525347352028e-03,8.164157159626483917e-03,2.140851505100727081e-02,-1.073893625289201736e-03,3.839572658762335777e-03,1.786590926349163055e-02,1.825992390513420105e-02,6.697025150060653687e-03,1.815534010529518127e-02,-6.878612563014030457e-03,1.011459250003099442e-02,-1.070916466414928436e-02,-9.559914469718933105e-03,1.829208806157112122e-02,3.615066641941666603e-03,9.413442574441432953e-03,-2.052488969638943672e-03,1.946592330932617188e-02,7.073761895298957825e-03,-1.280100084841251373e-02,1.736286794766783714e-03,-3.147186944261193275e-03,-1.159012410789728165e-02,3.441196633502840996e-03,2.393798343837261200e-02,4.433497320860624313e-03,-1.418891642242670059e-02,1.991317793726921082e-02,1.432519312947988510e-02,5.416918080300092697e-03,8.695131982676684856e-04,-1.886434108018875122e-02,2.368296124041080475e-02
-3.938659501727670431e-04,2.478120662271976471e-02,-8.571553975343704224e-03,1.852311939001083374e-02,-1.479422580450773239e-02,8.233552798628807068e-03,-1.041473820805549622e-02,7.946212776005268097e-03,-2.802635077387094498e-03,1.487508136779069901e-02,-9.510190226137638092e-03,1.591698080301284790e-02,-4.491631407290697098e-03,4.936782177537679672e-03,1.194099150598049164e-02,-2.648049220442771912e-02,-6.231348216533660889e-02,-3.112378763034939766e-03,-1.715819817036390305e-03,-7.663812953978776932e-03,-2.283698180690407753e-03,-2.293739281594753265e-02,3.186396323144435883e-03,7.632651831954717636e-03,-6.480464246124029160e-03,7.306227926164865494e-03,1.182078849524259567e-02,3.401302965357899666e-03,2.879381645470857620e-03,-1.066625001840293407e-03,8.928668685257434845e-03,1.253945659846067429e-02,3.241210244596004486e-03,1.338739506900310516e-02,-5.991232115775346756e-03,1.762991212308406830e-02,-3.185493173077702522e-03,5.267249071039259434e-04,1.874426729045808315e-03,-2.679841825738549232e-03,-1.818658597767353058e-02,6.712615489959716797e-03,6.995042320340871811e-03,-7.024915888905525208e-03,-4.338500555604696274e-03,1.420488301664590836e-02,1.816738024353981018e-02,-1.626761630177497864e-02,7.473421748727560043e-03,-8.393643656745553017e-04,9.096345864236354828e-03,1.578661613166332245e-03,1.721261255443096161e-02,9.922341443598270416e-03,-3.466405440121889114e-03,-2.003400353714823723e-03,4.604800604283809662e-03,-1.120538823306560516e-02,-2.514677587896585464e-03,1.354665611870586872e-03,3.188357129693031311e-02,-2.594247832894325256e-02,-5.057913716882467270e-03,4.048425238579511642e-03,-1.139294076710939407e-02,5.469465628266334534e-03,-1.964676921488717198e-04,-1.813727430999279022e-02,3.104203380644321442e-03,-2.683897688984870911e-02,-3.876913106068968773e-03,1.861317455768585205e-02,1.009826641529798508e-02,5.949344485998153687e-03,-1.039465516805648804e-02,7.125366013497114182e-03,9.803123772144317627e-03,-4.661676473915576935e-03,8.833842352032661438e-03,1.078074239194393158e-02,-4.795122426003217697e-03,1.241583097726106644e-02,-2.904041483998298645e-02,2.328802458941936493e-02,1.184567529708147049e-02,2.324759215116500854e-02,-6.423425395041704178e-03,6.777152419090270996e-03,7.172609213739633560e-03,-4.557922482490539551e-03,6.742202676832675934e-03,1.612913561984896660e-03,-6.273755803704261780e-03,1.485243556089699268e-03,-7.119219750165939331e-03,-2.271301811560988426e-03,1.918913237750530243e-02,5.124221555888652802e-03,-1.086124102585017681e-03,1.446477137506008148e-03
-3.674889355897903442e-02,2.313287928700447083e-02,-1.456535141915082932e-02,5.987446010112762451e-02,-2.976006828248500824e-02,2.900521457195281982e-02,-2.160282339900732040e-03,-3.442776948213577271e-02,6.036680657416582108e-03,5.437234789133071899e-02,3.938562422990798950e-02,-4.200288280844688416e-02,-4.536686837673187256e-02,5.304747074842453003e-02,2.147579379379749298e-02,-2.592894434928894043e-02,4.494253545999526978e-02,2.077562361955642700e-02,-1.437704917043447495e-02,3.753776848316192627e-02,-3.030245751142501831e-02,2.616338245570659637e-02,4.154647141695022583e-02,-3.801908344030380249e-02,2.349073067307472229e-02,-1.211427524685859680e-02,2.136617340147495270e-02,4.636992700397968292e-03,3.545626252889633179e-02,-1.411019545048475266e-02,-6.297254562377929688e-02,3.241525590419769287e-02,9.989101439714431763e-03,2.551371790468692780e-02,1.203557383269071579e-02,2.123759686946868896e-02,1.343680545687675476e-02,-2.063946984708309174e-02,-2.381486631929874420e-02,2.948378585278987885e-02,-3.491301834583282471e-02,-4.472704231739044189e-02,3.888740669935941696e-03,-2.644059993326663971e-02,-7.232939824461936951e-03,1.518721319735050201e-02,-1.028042659163475037e-02,-1.270806603133678436e-02,-3.589937463402748108e-02,3.771635517477989197e-02,3.283303976058959961e-02,1.167084556072950363e-02,7.822499610483646393e-03,8.591780439019203186e-03,-2.654676139354705811e-02,-2.768696099519729614e-02,1.911678537726402283e-02,-9.753336198627948761e-03,-2.055728062987327576e-02,-4.101118817925453186e-02,-2.934721484780311584e-02,-7.088672369718551636e-03,-2.735690958797931671e-02,-4.257900267839431763e-02,3.529398469254374504e-03,1.914414949715137482e-02,-2.876335009932518005e-02,8.122796192765235901e-03,1.083694631233811378e-03,-1.728392392396926880e-02,2.822459861636161804e-02,-5.549592897295951843e-03,1.448570098727941513e-02,2.476084977388381958e-02,6.194021087139844894e-03,-2.489539980888366699e-02,5.230454262346029282e-03,5.330793187022209167e-02,3.119026310741901398e-02,3.367698937654495239e-02,5.583300441503524780e-02,-3.928353637456893921e-02,-1.751563698053359985e-02,-3.459736332297325134e-02,2.380295656621456146e-02,-6.043381243944168091e-02,-3.048373386263847351e-02,-3.568302839994430542e-02,1.733547449111938477e-02,4.681863263249397278e-02,3.702730312943458557e-02,-1.529930438846349716e-02,3.250537440180778503e-02,-3.938701469451189041e-03,-4.659780859947204590e-02,-9.614963084459304810e-03,-3.506196662783622742e-02,3.607912734150886536e-02,-1.875297352671623230e-02,-2.112430520355701447e-02
-1.737496233545243740e-03,-8.295255713164806366e-03,-2.293467987328767776e-03,5.479128099977970123e-03,7.957485504448413849e-03,-5.325616337358951569e-03,-1.218023127876222134e-03,6.882545072585344315e-03,-5.259559489786624908e-03,2.845892868936061859e-02,1.546039129607379436e-03,3.910850267857313156e-03,1.993384212255477905e-02,5.724945571273565292e-03,-6.468962412327528000e-03,-8.546196855604648590e-03,3.692922368645668030e-02,1.058580353856086731e-02,1.448035426437854767e-02,1.217685546725988388e-02,7.999485358595848083e-03,-1.180685497820377350e-02,2.134994231164455414e-02,-8.210477419197559357e-03,2.905881730839610100e-03,7.449106313288211823e-03,4.899445921182632446e-03,2.301467116922140121e-03,-1.878883456811308861e-03,7.544684689491987228e-03,1.800450496375560760e-02,2.616419922560453415e-03,6.171436049044132233e-03,1.159196626394987106e-02,-7.813503179932013154e-05,-1.377804670482873917e-03,1.674724626354873180e-03,-7.793240249156951904e-03,1.090900599956512451e-02,4.799634218215942383e-03,1.383322570472955704e-02,1.803729310631752014e-02,4.121985752135515213e-03,-4.103695042431354523e-03,-6.251000799238681793e-03,-9.467795491218566895e-03,-2.129641507053747773e-04,4.270490724593400955e-03,1.540235150605440140e-02,-1.769530936144292355e-03,-3.187626134604215622e-03,-3.244501771405339241e-03,-6.872135680168867111e-03,1.862361095845699310e-03,4.846532829105854034e-03,-9.922163008013740182e-05,-4.784361924976110458e-03,-1.311668474227190018e-02,-4.758470691740512848e-03,2.895863540470600128e-02,8.678039535880088806e-03,2.085219323635101318e-02,-4.856864921748638153e-03,-1.782392710447311401e-02,-5.778813647339120507e-05,2.841114997863769531e-03,7.808945141732692719e-03,1.690892502665519714e-02,2.128505380824208260e-03,2.053872868418693542e-02,3.024125937372446060e-03,1.067982520908117294e-02,2.166355960071086884e-02,-8.600692264735698700e-03,1.821356359869241714e-03,1.296785939484834671e-02,1.738687977194786072e-02,-1.730674295686185360e-03,-1.360472571104764938e-02,-4.319701343774795532e-03,1.496541593223810196e-02,-7.992816244950518012e-05,9.902263060212135315e-03,-7.995881140232086182e-03,1.317483489401638508e-03,1.386917196214199066e-02,-6.400075275450944901e-03,9.138435125350952148e-03,1.204518135637044907e-02,3.910526633262634277e-03,-9.198926389217376709e-03,-4.986473359167575836e-03,-2.980829915031790733e-03,2.912559732794761658e-02,-3.586274106055498123e-03,7.198944687843322754e-03,-5.518779158592224121e-03,-3.100534668192267418e-03,-2.158992225304245949e-03,9.471777826547622681e-03
-2.139979600906372070e-02,-1.194199454039335251e-02,-6.262654904276132584e-03,4.499263688921928406e-02,-3.182066604495048523e-02,2.970561385154724121e-02,-3.850635141134262085e-02,-3.837182745337486267e-02,-7.605429273098707199e-03,1.244226749986410141e-02,9.040361270308494568e-03,-5.742815788835287094e-03,1.967317191883921623e-03,1.431919541209936142e-02,1.799757778644561768e-02,4.319189116358757019e-03,5.821405351161956787e-02,-1.028830837458372116e-02,-1.653170771896839142e-02,-2.033921424299478531e-03,-2.830531261861324310e-02,-5.663734395056962967e-03,1.807270199060440063e-02,-3.351048752665519714e-02,-4.509637877345085144e-02,-7.606135215610265732e-03,-2.205638884333893657e-04,7.845241576433181763e-03,4.338524118065834045e-02,-1.514477562159299850e-02,-2.370768971741199493e-02,-2.154587768018245697e-02,-3.970393165946006775e-02,-2.672935463488101959e-02,2.296640351414680481e-02,1.330549921840429306e-02,-2.749145962297916412e-03,2.752567455172538757e-02,1.012848131358623505e-02,3.877429058775305748e-03,5.968901142477989197e-02,1.055771950632333755e-02,-5.077985581010580063e-03,-1.758400909602642059e-02,6.232715677469968796e-03,3.236628603190183640e-03,-3.793302178382873535e-02,-1.804092153906822205e-02,-6.707938853651285172e-03,-2.002887340495362878e-04,-1.495399605482816696e-02,-3.689948469400405884e-02,-6.497093476355075836e-03,-4.151992499828338623e-03,2.529942616820335388e-02,-2.595363371074199677e-02,-2.255999110639095306e-02,1.232302002608776093e-02,-2.540505956858396530e-03,-1.240410190075635910e-02,4.199767485260963440e-03,4.099966958165168762e-02,3.715118765830993652e-02,-2.151766233146190643e-02,-2.894637733697891235e-02,1.140084024518728256e-02,-1.471889577805995941e-02,9.614848531782627106e-03,2.723314240574836731e-02,5.177746526896953583e-03,-2.110916003584861755e-02,7.078475784510374069e-03,-5.881442874670028687e-02,3.307463228702545166e-02,-1.642024517059326172e-02,9.171284735202789307e-03,-1.110808551311492920e-02,-1.356757828034460545e-03,3.752779215574264526e-02,-5.198261234909296036e-03,-8.613754063844680786e-03,-1.133256941102445126e-03,-1.581627526320517063e-03,3.987824171781539917e-02,8.330537937581539154e-03,-1.026650983840227127e-02,2.854725532233715057e-02,1.075230725109577179e-02,-7.613531779497861862e-03,-3.200518339872360229e-02,1.662657409906387329e-02,1.224851468577980995e-03,8.499539457261562347e-03,1.561083598062396049e-03,2.978757023811340332e-03,-4.676141962409019470e-02,-1.525690499693155289e-02,-8.289130404591560364e-03,4.166229069232940674e-02,-8.663626387715339661e-03
-1.348145678639411926e-02,2.250057645142078400e-02,1.699661649763584137e-02,-7.013589609414339066e-03,-2.685855142772197723e-02,-3.198027983307838440e-02,2.287337556481361389e-02,1.437599305063486099e-02,1.469255611300468445e-02,2.089959383010864258e-02,-1.710405200719833374e-02,-2.431036904454231262e-02,-2.197575755417346954e-02,1.233705133199691772e-02,3.735128324478864670e-03,2.242198400199413300e-02,-4.461771249771118164e-02,-1.781213097274303436e-02,-1.940733939409255981e-02,1.528057735413312912e-02,-2.257861196994781494e-03,-6.904701236635446548e-03,1.745582930743694305e-02,-1.801848225295543671e-02,1.832703500986099243e-02,-2.270924625918269157e-03,2.261010231450200081e-03,-8.642029017210006714e-03,-3.430409589782357216e-03,3.511266782879829407e-02,-7.429359015077352524e-03,3.740741172805428505e-03,2.735783532261848450e-02,7.677176035940647125e-03,-2.971583278849720955e-03,3.274958208203315735e-02,-2.662118896842002869e-02,7.185881026089191437e-03,-1.227648369967937469e-02,-1.601768657565116882e-02,-1.742488332092761993e-02,-1.354594714939594269e-02,-5.531211383640766144e-03,5.715867970138788223e-03,-8.845986449159681797e-04,6.006170529872179031e-03,2.423491328954696655e-03,9.643617086112499237e-03,1.360495574772357941e-02,5.140805616974830627e-03,1.750080846250057220e-02,-1.109633594751358032e-03,-1.400580629706382751e-02,-2.609721198678016663e-02,2.574168704450130463e-02,1.003169082105159760e-02,-1.431631855666637421e-02,-3.721875138580799103e-03,-1.965860277414321899e-02,-2.337641641497612000e-02,2.074691653251647949e-02,-4.712510108947753906e-02,1.494148001074790955e-02,-7.982486858963966370e-03,1.510392874479293823e-02,-1.501224562525749207e-02,3.191305324435234070e-02,-1.109844818711280823e-02,1.186654809862375259e-02,2.094601839780807495e-02,5.369012244045734406e-03,-1.915122009813785553e-02,1.992031000554561615e-02,4.973862785845994949e-03,-1.997035183012485504e-02,9.085943922400474548e-03,7.760445121675729752e-03,-7.533896714448928833e-04,-1.207866589538753033e-03,5.392435006797313690e-03,2.376946806907653809e-02,-1.002565212547779083e-02,-1.737247221171855927e-02,-1.635410822927951813e-02,1.063721626996994019e-02,-9.862226434051990509e-03,1.683052070438861847e-02,1.172977034002542496e-02,1.103440020233392715e-02,-1.913138665258884430e-02,-1.590198092162609100e-02,3.748750605154782534e-04,9.050394291989505291e-04,1.104297023266553879e-02,-1.355987880378961563e-02,4.390772897750139236e-03,-6.320118554867804050e-04,-4.705852363258600235e-03,1.789084170013666153e-03,8.360523730516433716e-03
